/* weights_cnn_1d_v2.h
 * Auto-generated by export_pytorch_weights.py
 * Source: D:/DeepBindi/EPFL_STAY_LAURA/python_code/results/deepBindi/cnn1d_v2_xheep/best_model.pth
 *
 * CNN_1D_v2 (PYE / Model 4) trained weights for X-HEEP inference.
 * All arrays are int32_t (in-range [-127, 127] for conv/fc weights).
 *
 * Wiring into cnn_models_c.c:
 *   1. #include this header.
 *   2. Replace seeded_value_int32() calls with reads from these arrays.
 *   3. Remove weight_arena_reset() from run_cnn_1d_v2() (pool unused).
 *
 * BatchNorm is pre-folded (Q7: 128 = 1.0):
 *   y = ((int64_t)x * scale[c] >> 7) + offset[c]
 *
 * Conv / FC weight quantisation (per-tensor symmetric, int8 range):
 *   x_float = x_int * scale   (scale documented per array below)
 */

#ifndef WEIGHTS_CNN_1D_V2_H
#define WEIGHTS_CNN_1D_V2_H

#include <stdint.h>

/* ------------------------------------------------------------------ */
/* CONV1  (57 -> 32, kernel=5)                                         */
/* Layout: [out_ch][in_ch][k]  = [32][57][5] = 9120 elements           */
/* ------------------------------------------------------------------ */
/* shape=[32, 57, 5]  float_scale=0.000753  (x_float = x_int * scale) */
static const int32_t conv1_weight[9120] = {
    -48, -2, -11, -46, -70, -33, -69, 52, 42, -19,
    -40, 33, 57, -27, -40, 63, 32, -65, 74, 49,
    -7, 50, -42, -35, 81, -16, -59, -35, -11, -22,
    -13, 73, 1, -39, 38, 61, 42, -72, -43, -63,
    -50, 23, -81, 36, 54, -13, -64, -50, 20, -58,
    55, -70, -87, -94, -2, 66, -82, 67, -43, 39,
    -1, -71, 41, 31, 58, 59, -52, 62, -15, 34,
    -88, -9, -73, -9, 16, -66, 8, 21, 7, -60,
    -40, -6, 49, 68, 48, 7, 27, -81, -73, 34,
    -22, 48, -42, -40, -54, 61, -13, 45, 32, 29,
    17, -9, 4, 11, 52, -23, 84, 16, -79, -40,
    107, 77, -66, 33, 32, 64, 76, -25, 19, 24,
    -11, 35, -23, 35, -36, -23, 26, 17, -63, -12,
    50, 11, 21, -47, 22, -49, -42, -54, 49, -46,
    13, -14, 95, 76, -70, -59, -45, 26, 0, -44,
    -18, 9, -25, 40, -6, -14, 26, 88, -38, 8,
    -16, 95, -67, -78, 71, -53, 12, 11, -16, -11,
    57, 10, -74, -39, -30, 62, -30, 79, 1, -5,
    82, 59, 71, 60, -10, -40, 7, 81, -18, -64,
    53, 100, -10, -51, -73, 40, 19, -20, 28, 30,
    86, 72, -28, -80, -90, 59, 29, 35, -64, 70,
    78, 75, -70, -40, -65, 81, -48, -47, 13, -56,
    -32, -4, -5, -62, 70, -20, 24, 57, 12, -8,
    66, 4, -52, 47, -8, -77, -13, -54, 56, -26,
    -66, -3, 44, 8, 14, 23, 29, -47, -51, -77,
    -49, 27, -32, 1, 24, -23, -74, 56, -67, 41,
    -66, -53, 9, -44, 62, -56, -47, -12, 16, 79,
    -48, 38, -18, -29, 36, -84, -14, 36, -47, 24,
    -63, 16, -108, -43, -60, 42, 52, 77, 18, 25,
    74, 8, 97, -38, 20, 23, 49, 70, 14, -55,
    24, 13, 36, -34, 66, 72, 13, -77, 38, -62,
    39, 7, -25, 39, -57, 19, -66, -17, 4, 72,
    -34, 63, -7, -46, -60, -58, 68, -15, 9, 21,
    52, 68, 73, -47, -5, -42, -22, 8, 49, -63,
    44, -25, -28, 51, -12, 9, -71, 77, -13, -52,
    31, -43, -80, -9, 70, -26, 13, 69, 72, -48,
    -1, -20, -55, -7, 78, 71, 32, 53, -13, 58,
    -18, -44, 27, 59, -69, 77, 44, -45, -19, 73,
    -42, -16, 33, -72, 41, 48, 63, -41, 74, -53,
    78, -68, -64, 47, 2, 0, -44, -22, -23, -83,
    -4, 18, -2, 28, 60, 1, -44, -36, -45, -65,
    -40, -30, 25, -29, 56, -61, -19, 40, 78, -54,
    -21, -17, -58, -34, 27, -81, 0, 32, -29, 67,
    -19, 37, 97, -8, 56, -1, -2, 6, -5, -17,
    27, 1, 68, 8, 9, -28, -83, 21, 14, -21,
    -8, 20, -17, 45, 12, 46, 23, -11, 26, 52,
    20, 1, -4, 68, -25, -41, 26, -62, 6, -29,
    65, -77, 40, 68, 7, 13, 78, -27, -2, -21,
    1, 19, 14, -15, -74, 22, -9, 14, 87, 88,
    -72, 3, -16, -50, -56, 76, 53, 46, 45, -45,
    33, 65, -51, 76, 13, 44, -27, 34, -69, -6,
    46, 16, 56, 83, 64, 67, 51, -22, -61, -39,
    -20, -43, 34, 40, 19, 4, 63, 27, -65, -61,
    37, -2, 15, -75, -90, 41, 66, -53, 61, -45,
    61, 39, 86, -77, -66, 77, 63, 40, 44, -79,
    31, -86, 22, -56, -32, 38, -38, -30, -75, -56,
    52, -36, -39, -28, -55, -64, 50, 49, 29, -31,
    34, 4, -56, 22, 84, -92, -79, -10, 35, -70,
    27, 78, 8, -14, 78, 59, -46, 24, 39, 79,
    -73, 25, -41, -88, 8, -54, 1, -50, -63, -15,
    -48, 35, 12, 75, 10, -17, 65, -2, 3, 5,
    15, -16, -2, -62, 0, -68, -17, 53, -37, -44,
    -23, -29, 2, -6, 43, -57, -9, 24, 58, -2,
    -43, 26, 49, -51, -34, 44, -15, -92, -57, 38,
    -42, 53, 69, -5, -1, -5, 5, 25, -32, -25,
    -73, 65, -60, 51, -35, -45, 50, 1, 37, 15,
    -79, 62, -33, -57, 31, 59, -60, -14, 51, 23,
    56, -35, -53, 48, 20, 63, -28, -59, -25, -78,
    18, 65, 5, -27, 40, -51, 64, -64, -71, -18,
    58, 5, 36, -54, 49, 2, 48, 69, 50, 25,
    -13, -57, -17, 57, -24, 58, -12, 10, 18, -55,
    12, 18, 11, -18, 64, 60, -57, 35, -67, -72,
    42, 2, -52, -80, -57, 25, -67, -77, -3, -61,
    -51, -11, 3, -72, -68, 5, -80, -20, -46, -70,
    33, -59, -78, 55, 4, 66, -15, -58, -10, -6,
    51, -75, -17, 26, -50, -25, 64, -86, 16, -67,
    39, -51, 34, -75, -69, 12, 76, -81, -37, 63,
    -10, 43, -84, -18, -39, 70, 33, -44, 15, 8,
    -9, -52, -24, 61, -61, -65, -7, 5, 19, 2,
    -6, -44, -21, -47, 57, -81, -27, -83, -10, 66,
    67, -47, -3, 54, 40, 78, 1, -57, 54, -24,
    60, -11, 25, 49, 79, -81, -41, -44, -57, 61,
    0, -62, -13, -47, 41, -56, -85, -79, 21, 31,
    -62, 27, 53, 15, -21, -1, 14, 61, -55, 36,
    59, -41, 70, 84, -14, -24, 50, -66, 41, 19,
    59, -55, -46, 45, 49, -64, -36, -66, -62, -34,
    55, -27, 28, 65, 29, -93, 16, 17, 52, -88,
    51, 78, -74, -9, 45, -64, 20, 29, 28, 91,
    72, 78, -8, 70, -71, -42, -20, -27, 63, 35,
    44, 40, -59, 10, 7, 2, 42, -44, -19, 71,
    -36, -58, 53, 55, -13, -19, -61, -83, 21, -34,
    53, -73, -19, -1, 36, 53, 47, 18, -21, -67,
    -59, 2, 57, -35, -19, -70, 53, 46, -93, -61,
    52, -5, -7, 21, -16, -72, -78, 23, -26, -45,
    -39, -41, -27, -64, 50, 17, -44, -34, 36, -37,
    -1, 14, -65, 29, -14, 76, -32, -30, 75, -58,
    -8, 54, -56, 86, 56, 46, -20, 57, -33, -44,
    23, 11, 41, 96, -65, 32, 19, 26, 38, -40,
    -74, 42, -62, 44, -84, -15, 3, -4, -11, -4,
    -5, 9, 69, -55, -4, -23, 76, 68, -8, -31,
    -44, 70, -2, 71, 39, 62, 91, -41, 39, -27,
    43, 13, 35, -34, -67, 32, 28, 36, 84, -28,
    37, -22, 38, 9, 64, 82, 87, 31, 83, -74,
    -40, 30, 22, -26, -34, -25, -59, 22, 82, 38,
    -21, -52, -36, 29, 51, -1, -23, -31, 19, -75,
    -35, 97, -16, 7, -25, -50, -13, 25, -31, -2,
    -13, -67, 75, 65, 27, 7, 35, -65, -39, 4,
    -68, 31, -64, 7, -32, -80, -12, -44, 53, 47,
    41, -29, 0, 50, 80, 53, -46, -75, -43, -39,
    55, 31, 95, 76, 13, -46, 72, 90, 45, -27,
    35, 8, 41, 64, 53, -76, -46, 59, -18, -70,
    87, -5, 78, -74, 11, -52, -38, -48, -18, 41,
    5, 62, 23, -30, -35, -49, -29, -59, -21, -31,
    -2, -52, 38, 48, -41, -35, 35, 42, -103, -46,
    7, -23, 74, -8, 81, 13, -17, -45, -21, 32,
    51, -3, 92, -49, 37, 69, -15, 80, -8, -41,
    -24, 4, -50, 21, 78, 9, -4, 15, -60, -71,
    -68, -60, 12, 8, -24, -58, 23, -60, -9, -67,
    -52, 32, -83, -71, 47, -54, -22, -34, 2, -60,
    15, 10, -36, 10, -62, 44, 6, -29, -74, 32,
    35, -8, 28, 6, -36, 17, 50, -34, -72, -4,
    11, -22, -48, 55, 25, -19, 17, 4, 12, 10,
    -19, 15, 7, 13, -30, 23, -67, 41, 44, -8,
    -51, -3, 4, -58, -48, 73, 45, 55, 47, 28,
    52, 42, -31, -2, 72, 16, -40, -59, 54, 72,
    80, 22, 70, -61, -64, -82, 94, 4, -43, 24,
    -31, -46, 30, 18, -52, -57, 41, 58, 8, -50,
    17, 5, -68, -55, 13, 23, -35, 25, -59, 62,
    34, 11, 35, 32, -41, -14, 26, -24, 75, -21,
    -57, -40, -63, 89, -18, -58, -6, -42, -43, 27,
    -70, 43, 60, 4, 28, -37, 73, 96, 23, 73,
    -84, -10, 22, -60, 36, -31, -29, -39, 46, -58,
    -16, 49, 85, 34, -14, -25, 41, 30, 78, 40,
    57, -57, 83, -22, -1, -1, -4, 29, 81, -22,
    27, -55, 13, 86, 51, 69, 51, 2, 10, -17,
    69, 51, -80, 83, -12, -6, -35, -13, 3, -41,
    -62, -42, -9, 65, 41, -42, -12, -8, -41, -21,
    -14, 26, -35, 13, -50, -9, 75, -31, 12, 83,
    36, -39, -43, -26, -32, 42, -32, 89, -25, -44,
    31, 76, 63, 28, 16, -23, 56, -50, -25, -57,
    -72, 41, 11, 61, 53, 32, 36, -20, 28, 68,
    21, -14, 25, -8, -54, 20, -65, 49, -48, -11,
    -29, 44, -61, 18, 41, 33, -10, 28, 40, -2,
    8, -91, -46, -23, -15, -48, -102, -42, -3, 69,
    -68, 31, -86, -90, -53, -31, 29, -54, 50, 82,
    -6, 47, -51, -30, -32, -12, -68, -70, 42, 17,
    66, -16, 31, -50, 47, -9, 58, 40, 59, 39,
    -12, 59, -50, 72, 69, 70, -26, -25, 12, 19,
    37, 39, 78, -18, -21, 11, 18, -48, -2, -58,
    -35, -30, 84, -73, -40, -74, 20, -45, 24, -67,
    -66, -57, -13, 72, 82, -6, -91, -24, -22, -23,
    14, 31, 35, 17, -19, -4, 7, -29, -1, 4,
    -87, 50, -1, -77, 83, -38, 38, 106, 22, 53,
    37, 70, 1, -22, 25, 55, 18, 72, 11, 44,
    -2, 29, -51, -74, 6, 48, 76, 27, 48, 60,
    -60, -47, -43, 9, -35, -5, 18, 48, 23, 79,
    91, -39, -7, 5, 65, -16, -19, -39, 62, -21,
    -34, 67, 90, 12, -37, 60, -28, -31, -49, -35,
    -72, -41, -57, -1, 41, -77, -3, -36, 42, 78,
    -23, -25, -52, -43, 54, -6, 40, 0, 54, -57,
    0, 64, -70, -33, 54, -29, -43, 56, 6, 11,
    -33, 46, 55, 16, 18, 25, 35, -30, -15, 39,
    -54, 58, -54, 27, -55, 18, 31, -13, -15, 39,
    -73, -63, -77, -44, 2, -5, 33, -9, 58, -39,
    -36, 26, -3, 44, -37, 17, -6, 44, 32, -33,
    37, -7, 11, 1, 67, 58, 42, 39, 50, -35,
    -25, -12, -56, 40, 12, -4, 0, -1, 63, 78,
    -53, 27, 46, 25, 1, 15, 14, 65, -77, -34,
    -43, -41, -2, 44, -71, 12, 46, -39, 13, -37,
    28, -59, -28, -48, -96, 40, -59, -43, -45, 38,
    -68, -66, -81, -95, 47, -79, -18, -39, 14, -5,
    -44, 86, -66, 32, 18, -17, 68, 79, 35, -18,
    62, 57, 11, 2, 22, 87, 17, -30, -58, -43,
    60, 16, -10, 33, -38, 3, -15, 54, 70, 47,
    49, -78, -26, 8, -57, 3, -59, 27, 56, -60,
    66, 34, -48, 61, -76, -63, -62, 12, 3, -31,
    -94, -14, 69, 52, 32, -6, 11, -62, 23, -84,
    -33, -37, 51, -15, -53, 9, -47, -10, 28, 11,
    -4, 55, -69, -45, 65, 24, -27, 69, 49, -6,
    -40, -10, 24, -1, 40, -75, -46, 53, 18, 6,
    16, -23, -39, 21, -40, -42, 3, 14, 1, -59,
    -24, -52, 23, -65, 43, 13, -83, 38, -90, -20,
    -73, -79, -9, -47, 37, -63, 32, 22, 50, -30,
    -67, -84, 34, -58, -18, -23, -6, -86, 55, -53,
    48, -37, -44, -9, 33, -10, -94, 43, 83, 48,
    78, 13, -13, -67, -78, -72, -30, 36, -41, -16,
    -6, -56, -16, 76, 34, 49, -12, 3, 51, -24,
    -18, 60, 5, -60, 62, -5, 24, -75, 12, 51,
    -21, -46, 57, 20, 20, 27, -5, 28, -37, -52,
    25, 6, -1, -28, -20, -9, 22, -55, -89, 25,
    -43, -4, 7, 1, 48, 7, 21, -10, 2, 28,
    49, -64, -41, -72, -28, 32, -99, -38, 52, -30,
    68, 43, 7, 67, -78, 65, 44, -62, 10, -35,
    -40, -10, -32, 60, 66, -6, -79, -18, -14, 36,
    -3, 17, 11, -55, -64, -77, -28, 23, -24, 68,
    -11, -48, 31, -26, -19, 78, -6, 60, -17, -37,
    52, -70, 2, 21, 24, -76, -2, -22, 64, 18,
    37, 52, -26, 0, 60, -55, -40, 18, -22, 27,
    75, 12, -64, -31, 91, -6, -25, 35, 12, -66,
    98, 66, 87, 53, 2, -34, 26, -28, 11, -96,
    -43, 34, 1, -43, -88, 52, -5, -84, 72, 27,
    -31, -59, 73, 6, -61, 30, -25, 4, -36, -70,
    -37, -2, -72, 62, -10, -6, 47, -56, -43, 30,
    -92, 35, 2, -50, -83, 21, 33, -29, -70, -41,
    22, 7, 16, 20, 9, 28, 68, 81, 80, -17,
    -41, -12, 39, 39, 2, -53, -55, 56, -18, -9,
    -74, -53, 36, 28, -48, -38, 60, -56, -65, -15,
    106, 32, 10, -13, 51, -53, 57, 20, -26, 10,
    -45, 66, 38, -78, -85, -29, 56, -40, 56, -59,
    -73, 37, -52, -26, -37, -19, -81, -75, 18, -19,
    -76, -15, -80, -6, 23, 53, -72, -25, 21, 61,
    -74, 24, 20, 17, -62, 58, -45, -63, -7, 57,
    -54, 32, -28, 9, 55, 31, -55, -18, 15, -87,
    16, -20, -5, 24, -62, -37, 52, -66, 65, -53,
    26, 31, 52, -36, 22, 41, 80, -43, -33, 46,
    26, -49, -51, -51, -31, -1, -31, -43, 19, 50,
    -30, 17, -2, 51, -41, 30, 86, 61, -59, -4,
    29, -14, -39, -42, 47, -5, 12, 40, -35, 5,
    71, -24, 49, 6, 50, 81, 43, 18, -55, 35,
    74, -9, -63, 71, -12, 37, -10, 59, 81, 44,
    -16, 68, 62, 0, -63, -36, -86, 44, 92, 59,
    13, 15, 66, -41, -22, -82, -17, -2, 26, -38,
    -11, -69, -59, 22, -76, 27, -85, -72, -27, -69,
    59, 67, -53, 22, 55, 24, -27, -79, 57, -50,
    -22, 3, -28, -14, -65, 16, -7, 52, -31, 50,
    4, -42, -24, -16, 5, -16, 14, 69, 22, 37,
    31, -1, 44, 48, 76, -67, 35, -13, -28, -44,
    54, 77, -67, 36, 29, 8, -6, 33, -9, -36,
    17, 43, 39, 14, 39, 12, -66, 26, 52, 0,
    -18, 59, -63, -20, -34, 66, -97, -1, -70, -2,
    16, -7, 94, -8, -39, 28, 49, -4, 65, -54,
    21, 57, 47, -12, 46, -84, -77, -17, -27, 68,
    65, 60, -37, -55, -64, 22, -76, -95, -43, -50,
    -52, -51, -35, 62, -17, 49, -15, -9, -26, -57,
    -58, 67, -24, -73, 86, -9, -54, -47, -70, -61,
    67, 59, 11, -61, -29, -62, 35, -37, -13, -1,
    0, 22, 27, 4, -19, -22, -77, 70, -31, 39,
    -70, -21, 21, -73, 23, -77, -1, -14, 42, 69,
    -12, -30, -54, 19, -56, -2, -67, 42, 46, 19,
    -25, 17, -83, 59, -37, 18, -28, -46, -45, 33,
    -33, -6, 50, 9, -64, -76, -34, 66, -63, 49,
    52, -27, -31, -62, 1, 2, 13, 32, 25, -18,
    4, 14, -3, 4, -28, 68, -14, -6, -61, -52,
    -20, -37, -72, 48, -4, 9, 61, -35, -36, -25,
    -18, -46, -26, -15, 30, 52, 45, -6, -17, 3,
    -20, -25, 19, -85, -72, -29, -26, -65, -89, 40,
    -39, -51, -66, -8, -91, -13, -15, 28, 20, -54,
    -1, 52, -19, 8, -49, -11, 10, -48, 15, -90,
    -43, -33, -71, -54, -79, 5, -34, -80, -2, 14,
    55, -45, -20, 5, 9, -9, 14, 76, -28, 60,
    72, -94, 7, 22, -26, 20, -22, 56, -4, -66,
    48, 0, 63, 8, 24, 43, -20, -52, -17, -66,
    16, -54, -24, -87, 24, -95, 17, 41, -84, 66,
    -69, -17, 37, -37, 59, -8, -2, -47, -34, 73,
    39, 0, 12, -61, 52, 2, -31, -71, 56, 35,
    30, 24, -43, 26, 13, 35, 10, -16, 77, 52,
    -2, 45, 14, 23, 69, -59, 66, 41, -8, -46,
    25, -58, 38, -44, 26, -106, 29, 69, 82, 4,
    37, 16, 32, 23, -68, 30, -23, -61, 39, -45,
    4, 50, 57, 32, -18, -78, -62, 12, 9, -43,
    64, 79, 43, -30, -17, -38, 44, -45, 38, -51,
    -25, -47, -13, -18, -53, 72, 55, -101, -29, 4,
    99, -11, 18, -20, -45, 55, -61, 82, 63, -39,
    63, 84, 9, 11, 27, -36, 6, -34, 56, -46,
    0, -8, 54, 10, 45, -4, -51, 43, -37, -59,
    49, -31, -14, -7, 19, -6, -17, -9, 76, 38,
    -21, -37, 8, 5, -11, 77, 75, 29, 37, 48,
    -1, 23, 80, -50, -6, -9, -56, 42, 47, -59,
    45, 54, 56, 14, 36, 86, -33, -5, 34, -71,
    33, 12, 32, 34, 3, 54, 4, 29, 39, 3,
    -68, 83, -23, 47, 54, -19, -67, 4, -37, 6,
    -47, 57, -71, -17, -6, -9, 41, -23, -64, 32,
    1, 49, -41, -53, -40, -29, 18, -27, 9, 1,
    51, -27, 95, -59, -28, -66, 50, -42, 30, -29,
    66, 5, -53, 24, 4, -89, 6, 73, 13, -32,
    -29, 9, -41, 79, 65, 29, -48, -77, -46, 50,
    -83, -101, -21, 20, -94, -63, -19, -25, 78, 14,
    -74, -64, 52, -25, 4, 20, -40, 22, 21, -57,
    -62, 51, -39, -8, -9, -68, 38, -73, 10, 16,
    18, -79, 2, 31, -57, 21, 11, 72, -33, 0,
    -44, -37, 4, -88, 84, 40, 25, 50, -40, 24,
    -15, -49, -25, -33, -25, -59, -41, -19, -9, -47,
    28, 50, 64, 69, -44, -29, -44, 19, 32, 15,
    33, 29, -55, 51, 73, 13, -85, -54, 32, 45,
    94, 48, 42, 18, 63, -13, 34, -27, 16, 48,
    30, -30, -9, -62, 22, 30, 4, -103, -71, 55,
    -36, 42, 25, -53, -47, -91, 28, 50, -14, -86,
    -63, -11, 36, -17, -26, -58, 70, 30, -63, -61,
    -95, -18, -40, 0, -2, -59, -71, -49, -25, 29,
    -28, 1, 4, 95, -29, 87, -64, -52, 35, -36,
    40, -45, 49, 94, 19, 33, 73, 49, -52, 13,
    -60, 65, 3, 5, -41, -37, 6, 62, -42, 16,
    88, 88, -5, 71, 21, 42, -28, -69, -24, 9,
    36, -75, 43, -86, 51, 88, 35, -16, 54, -10,
    -49, -48, 41, 79, 13, -65, -58, -19, 57, -42,
    29, -24, 88, 6, -8, -62, -57, 22, 41, 49,
    -63, 31, -1, 67, -25, 37, 46, 62, -7, 25,
    2, 43, -26, -33, -44, -36, -8, 46, 10, -37,
    35, -28, 57, -59, -12, -43, 31, 25, 13, 88,
    -16, 15, 50, 82, 60, 11, -42, 28, 56, -11,
    43, 64, -38, -11, -93, 6, 61, -14, 14, 11,
    -17, 63, 40, -71, -78, -77, 20, 46, 7, 82,
    -12, 26, 71, 53, 3, 75, -45, 24, 69, -48,
    -83, 23, -47, -27, -5, -58, 69, -9, -17, 65,
    9, 9, -54, 78, -38, 55, -14, 29, 50, -81,
    -74, -78, 58, 75, -36, -23, 5, 47, 14, -15,
    -48, 70, -46, -62, -40, 10, 15, 10, -57, -35,
    -26, -51, -52, 23, -13, -76, -51, -66, -42, -35,
    -15, 18, -86, -27, -10, -19, -31, -18, 2, -48,
    28, 60, 68, -19, 32, -85, 68, -79, -82, -57,
    -78, -3, 1, 21, -9, 10, -36, -32, -45, 50,
    -42, 2, 17, -28, -7, -69, -63, 44, -18, 49,
    -15, -7, -75, -12, -36, -55, -25, -15, -58, 30,
    29, -13, 60, 12, -85, -24, -25, 29, 4, 66,
    7, -41, -21, -41, -1, 32, -1, -65, -69, 44,
    -82, -64, -63, 71, -22, -21, -53, 56, -4, 22,
    26, 24, 58, 5, 7, 4, -62, -9, 78, -54,
    -68, -85, -8, -91, -50, 75, 34, 48, 4, -80,
    -37, -62, -50, 14, -38, 58, -65, -55, 91, -68,
    53, 11, -69, 70, -25, -29, -56, -62, 2, -86,
    28, -23, 37, 5, 38, 11, 35, -44, -68, 3,
    -45, -54, -66, -29, -60, 36, 60, 12, 76, 48,
    -87, -22, -35, -71, 13, -41, -49, -25, -61, 56,
    27, 60, -25, 7, -14, -82, 18, -73, -46, -61,
    -93, -11, -11, -18, 45, 2, -26, -67, -69, -28,
    -52, -50, -44, -37, -71, 54, 68, -46, 32, -32,
    -2, 55, -4, -88, 58, -11, -44, -44, 61, -5,
    50, 40, -46, -14, -58, 52, -56, 38, -2, 38,
    -55, 3, 42, -4, 2, 13, -64, -33, 7, 11,
    71, -11, 24, -34, -24, -51, 61, -3, 35, 39,
    1, 10, -3, -74, -1, -40, -70, 54, -12, -41,
    -105, -74, 22, -28, -38, -49, 64, -18, 59, 57,
    -82, 57, -21, 79, 52, -84, 19, 28, -22, 65,
    -71, -20, 72, 75, 53, -65, -59, -65, -11, 50,
    14, -22, 71, 60, -40, -21, 7, 23, -19, 14,
    57, -16, 23, 31, 45, 33, -7, -29, 30, -56,
    36, -40, 66, 43, -2, 46, -19, 23, 33, 22,
    -2, 2, -6, 27, 25, 26, 64, -22, -12, -3,
    53, -70, -42, -4, -58, -42, 57, 5, -84, -21,
    11, -21, -76, 33, -22, 78, -58, -50, -5, -59,
    50, 74, 75, -63, 48, 53, -12, 11, 61, 76,
    -58, 95, -17, 55, -20, -37, -28, 73, 8, 58,
    21, 8, -34, -35, -49, -40, 62, -15, -31, -80,
    4, -84, -14, 53, -50, 35, -24, -62, -85, 24,
    -61, 47, 8, 40, -75, 66, -91, -54, 49, 0,
    -42, -8, -66, -66, 1, 41, 29, 25, -2, 95,
    8, 15, 4, 36, 47, 63, 63, 15, 53, 2,
    53, 47, 71, 14, -55, 19, 51, 77, 56, 36,
    51, -43, 84, 55, 74, 51, -65, 41, 88, -48,
    -3, -66, -3, 13, 23, -20, -57, 23, 38, 3,
    74, 48, -20, 13, 5, -15, -28, -40, -36, 34,
    -14, -39, 70, 22, 53, 71, -17, 12, 88, -35,
    -13, 9, -2, 21, 38, -27, -2, 71, -34, -32,
    -57, 43, -57, -13, 76, -55, 67, -32, 40, 38,
    -29, 42, 73, -35, 63, 19, -7, -56, 37, 74,
    -69, -62, -68, 15, -23, -6, 85, 8, -35, -5,
    -33, -10, 57, 27, -68, 60, 54, -56, 31, 15,
    -42, -59, -83, 53, 19, 28, -56, 46, 1, -72,
    -9, 52, 19, -2, -65, -59, 66, -54, 77, -16,
    -8, -86, -30, 80, -55, 32, -74, 12, -44, -53,
    -60, -21, 24, -44, 27, 66, 66, 73, 80, -5,
    12, 78, 53, -6, 73, -46, 82, 55, -39, -48,
    68, 57, 9, -36, 43, 69, 10, 46, 65, 39,
    41, -72, -22, 8, 18, -33, 33, 30, -74, 38,
    -7, -61, 8, 13, -23, -80, 44, -45, 12, 74,
    -30, -57, -60, 22, -27, 28, 23, -23, 76, -4,
    -30, -40, 25, -27, 31, -16, 40, -32, -30, -5,
    -46, 36, -15, 17, 42, 51, 6, 50, -32, -76,
    -11, -68, -65, 7, 71, -27, 11, -65, 38, 23,
    -11, 50, -62, -13, -50, 59, 56, 68, 68, 25,
    -75, -77, 12, -87, 45, -4, -16, -115, 24, -33,
    -57, 14, -19, -62, 3, -43, 54, 63, 10, 34,
    -76, -75, -90, -57, -74, 29, 31, 41, -30, 67,
    -28, -39, 24, 39, -63, 72, -9, 35, -79, 7,
    -65, -57, -29, 4, -18, -62, 55, 33, -56, 18,
    5, 7, 24, 6, 26, -71, -24, 69, -39, 38,
    61, -72, -27, 71, -6, 0, 2, 40, -20, 11,
    30, -9, -76, 24, -25, -9, 40, 22, -39, -34,
    -12, -11, -28, -56, 53, 51, 22, 15, 2, 77,
    31, 24, -31, 31, -60, 38, -58, -25, 53, -32,
    66, -34, 87, 33, -23, 53, -61, -41, -41, 21,
    8, -62, 81, 15, -27, 11, -26, 26, 43, -15,
    -10, 41, -33, -13, -16, -69, -2, -3, -59, 21,
    54, 28, -49, 77, -61, -17, 41, 65, 72, 30,
    -39, 14, -68, -15, 49, 43, -67, -40, -73, 34,
    -10, -50, -21, 23, 14, 55, 3, 20, -24, 10,
    1, 70, 36, -44, -62, -92, -39, 4, 72, -18,
    40, 50, -51, -38, 48, 30, -40, 16, -54, 1,
    15, -1, -11, 53, -25, 56, -56, -36, -43, -77,
    55, -20, -54, 25, -67, -3, 33, -23, 42, 3,
    -66, 10, 42, -22, -2, -4, -4, 4, -84, 45,
    34, 14, 21, -63, -29, -11, 23, -39, 8, -16,
    47, -67, -2, 49, -71, -16, 39, 58, 36, 39,
    -57, 70, 3, 42, 1, -8, 36, 72, 75, -75,
    0, -39, 65, 70, -48, -13, 61, 68, -37, 65,
    -22, -68, 37, 57, 29, -53, -60, -61, 36, -57,
    -23, -49, 13, -8, -50, 2, 74, 21, -31, -17,
    -47, -45, -23, -54, 72, 5, 26, -45, -47, -2,
    -63, -71, -127, 17, 30, -117, -69, -105, -79, 22,
    12, -30, 3, -4, 15, -78, 4, -106, -83, -52,
    -7, -85, -10, -13, -52, 22, 47, -38, -60, -67,
    -54, -43, -60, -34, 69, -7, 46, 75, -35, -48,
    1, -76, 44, -19, -71, -46, -54, 26, 65, 87,
    -29, -55, -20, -52, 1, -72, 36, -65, -44, 68,
    -69, 24, 55, 78, 73, -20, 49, -7, -28, 25,
    -2, 32, 43, 34, 8, -8, 26, 7, -75, 15,
    -53, -45, 45, 9, 16, -24, 28, 73, 18, 28,
    -68, 50, 18, 22, 32, -5, 2, 80, 59, -51,
    85, 87, 9, -61, 34, -11, 49, -73, 18, -6,
    23, 62, 7, -52, -26, -20, 7, 33, -9, -25,
    33, -72, 45, -12, 72, 45, 8, 55, -58, 66,
    27, -35, 25, 10, 70, 9, 47, -72, 71, 22,
    38, 6, 62, 85, 16, -56, 83, -10, -25, 57,
    46, 7, -14, -5, 78, 38, 33, 33, -32, 30,
    -77, 31, -88, -91, -96, 42, 5, -11, 7, -24,
    -19, -70, -37, -54, -10, 74, -69, 32, -52, -16,
    32, 18, 58, 6, -25, -4, 6, -69, -47, -25,
    5, -46, -39, 77, 85, 16, -29, -27, 31, 37,
    -5, -51, -17, -1, 62, -8, 75, 24, -4, -53,
    109, -3, 39, -34, -71, -67, -54, -12, -38, 66,
    -52, 46, 57, 12, -41, -14, 20, 14, -25, -24,
    -13, -64, 14, -68, -44, 11, 65, 52, -63, 57,
    73, 68, -20, 66, 40, -28, -36, -10, -56, -26,
    83, 50, 53, -2, -39, 60, 21, -7, -41, 23,
    -55, 37, 62, 10, 62, 38, -35, -75, -14, 44,
    -19, 17, 69, 35, 43, 11, 30, -12, 1, -51,
    46, 83, 31, -22, -19, -104, -28, -89, -89, -40,
    -56, -25, -86, 5, -99, -36, -47, -15, 18, -30,
    -2, -41, -59, -38, -4, -93, -70, 28, 10, -11,
    -16, 8, 18, -53, -45, -55, -86, -28, -20, 58,
    6, -1, -3, 48, -22, -44, -35, -94, 1, -58,
    -40, -53, 75, -81, 59, 27, -36, 68, -5, -56,
    -32, 41, -76, 12, 48, -18, -2, -43, -49, 41,
    -48, -18, 13, -44, 31, -77, 90, 56, -3, -58,
    8, 4, -50, -33, -104, -82, -4, 70, -7, 40,
    -42, -16, -19, -40, 52, 41, -65, 15, -46, -45,
    1, -18, -53, 11, 42, 1, -5, -1, -38, 38,
    71, 1, 9, 66, 67, -42, -34, -64, 49, 53,
    -34, 28, 37, -67, 29, 39, 13, 21, 28, 60,
    49, 27, 73, -6, 58, -30, -49, 48, 29, 37,
    33, 10, 42, 38, -31, 3, 12, -20, -90, 4,
    63, -58, 56, 12, 32, -16, -68, -43, -8, -42,
    69, -49, -73, -43, 71, -36, 70, 35, -20, 42,
    24, -40, -27, 71, 38, -46, -28, 47, 42, 11,
    -64, -50, -6, 30, 23, -58, 0, 88, -63, -44,
    48, 86, -50, -55, -3, 81, -41, 25, 66, -26,
    -26, -49, 3, 75, 41, 57, -7, -5, -14, 57,
    -10, -72, -32, 26, 82, -26, -73, -45, -67, 43,
    42, 18, -1, 54, 58, 51, 36, 39, 29, -35,
    -51, 27, 10, -87, -74, -84, 59, 42, -63, 18,
    -12, 78, -66, -68, -90, 40, -36, 42, 18, -55,
    -29, -41, 26, -45, 30, -11, -56, -56, -65, 49,
    29, 3, -37, -83, -33, -63, -82, -79, -46, -52,
    18, 37, 31, -71, 59, 19, 58, -6, 37, -84,
    35, 59, 31, -47, -19, -22, 23, -28, 6, -8,
    -13, -3, -52, -53, 73, 75, -5, 62, 52, -52,
    -17, -37, 45, 20, -7, 65, -5, -35, -43, -19,
    45, -39, -29, 38, -52, -40, 39, -52, -65, -43,
    -17, 4, 5, -43, 64, -67, 41, 5, -24, 73,
    -95, -8, 46, 43, -84, 9, 64, -98, 27, -56,
    2, -89, 41, -24, 30, -24, -32, -27, -82, -47,
    -4, -66, 40, -51, -32, -10, -76, -36, -43, -73,
    -17, 49, 30, 71, -16, -18, 61, -83, -67, 19,
    29, -44, 33, -42, -19, -27, -32, -53, 18, -28,
    30, 11, -76, -77, -31, 16, -55, -43, 13, -47,
    -51, 75, -54, -32, 67, -14, 44, -78, 53, -13,
    -47, -41, -89, 59, -13, -88, 63, 40, 51, 76,
    50, 73, 60, 74, 23, -11, 10, -23, 34, 11,
    13, -55, -30, 65, -6, 16, -66, -47, -12, -19,
    63, -30, 51, -23, 19, -44, 15, -89, -84, -65,
    35, 19, 14, -20, 49, 65, 45, 77, -12, -32,
    6, 64, 7, -50, 27, -16, -24, 79, 17, -26,
    -47, 77, 57, -47, 18, -15, 49, -50, 21, 49,
    38, 9, -22, -45, 62, 71, -24, -70, 51, -40,
    -49, 15, -23, 0, 73, -7, 48, -16, 82, 53,
    69, 15, -34, 50, 78, 15, 25, -51, 56, -53,
    52, 29, -2, -56, 87, 50, 66, 33, 10, -14,
    -43, 32, 35, 9, 0, 21, -75, -68, -19, 73,
    36, -62, -7, 3, 26, 68, 11, -61, 15, -17,
    -39, 49, -2, 41, 77, 4, 45, -35, 46, 17,
    48, 88, -41, 84, 50, -60, 24, -76, 38, 23,
    -90, 34, -19, 60, 86, 31, 67, 50, 82, -13,
    19, -17, -11, -21, -24, 57, 27, -20, -64, 43,
    -78, -15, -70, 60, 84, -70, -83, -56, 33, -46,
    -13, -5, 21, -44, 35, -27, 22, 97, -10, 93,
    39, -7, 50, -17, 36, 16, 80, -37, -16, -44,
    -48, 21, -55, -14, -46, -21, 36, -50, -17, -1,
    -11, 34, 43, -48, 70, 49, -17, -16, 13, 6,
    -68, 56, 30, -72, -48, 92, 15, -15, 46, 11,
    36, 62, -18, 64, -56, -72, 6, -20, 47, -6,
    -7, -20, 61, -2, 18, 72, 74, 77, -88, -42,
    -23, -17, 51, 59, 21, 22, 20, 72, 27, -48,
    -29, 31, -15, -53, -83, -6, -23, -44, 35, 84,
    36, 28, -73, 44, 32, -9, -31, -18, -44, -21,
    -34, -21, -87, 33, -58, -89, 21, -84, 69, 72,
    -47, -22, -87, 2, 21, -68, 8, -34, -27, 0,
    -77, -80, -22, 63, -41, 75, 12, -57, -11, 40,
    36, 70, -22, -67, 75, -24, 49, 34, 1, -51,
    -46, 50, 32, 69, -57, 19, 88, 49, 73, 73,
    2, -38, -48, 23, -31, 9, 10, 44, 44, 44,
    1, 39, -25, -19, 4, -39, 80, 2, 34, 11,
    -14, -73, 6, -80, -18, 47, -100, 10, 7, -75,
    -13, 33, 49, -8, 53, -24, 9, 6, -92, -34,
    -81, 53, 24, -48, -18, -2, -92, -2, 13, -1,
    -25, 39, 29, -92, 38, -63, 43, 74, -12, -22,
    -51, -37, -48, -28, 66, -25, 30, -53, 15, 68,
    -51, -7, 21, -82, -44, 18, 70, -38, -9, -79,
    -85, 68, 67, -18, -20, -17, 32, -82, -46, -29,
    -48, -3, 29, 14, -68, 65, 60, 19, 29, 23,
    55, -84, -66, 0, -18, -54, -60, -68, -5, 70,
    61, 48, -20, -24, 13, -82, -18, -6, 65, -20,
    76, -15, -47, 61, 59, -76, -43, 51, -60, 53,
    -33, -7, 9, 95, -12, 6, 75, -23, 28, -36,
    -100, -54, -28, 33, -107, -44, 14, 18, 12, -96,
    -19, 3, -75, 20, -94, 36, 20, -32, 28, 77,
    38, 57, -33, 18, 51, 9, 26, -69, 47, -7,
    -76, -34, 40, -32, -15, -49, -40, 28, 38, -5,
    -5, -12, -71, -37, 22, -81, 14, 6, -2, 7,
    52, 83, 51, 32, -44, 16, -46, 28, -71, -14,
    54, 31, 69, 31, 29, 18, 65, 41, 10, -50,
    -15, -29, 24, -28, 38, 49, 48, -61, 8, 55,
    -61, 50, -35, -66, -28, -22, -22, 42, 33, 47,
    62, -26, -54, -62, -29, -39, 37, -35, -57, 50,
    -41, 34, -50, 32, 63, -59, 37, -18, 50, 79,
    -68, 37, 82, 80, 71, -8, 10, 26, -38, -6,
    1, -62, 5, 1, -18, -37, -95, 89, 56, 69,
    -62, -67, 47, -21, 13, 42, 3, 3, 60, 74,
    -7, -66, -41, 63, 15, 87, -24, -78, 32, -39,
    -39, 58, 4, -24, 91, 75, -65, -79, -43, -68,
    -42, 54, -57, 68, 23, -9, 29, 27, 35, -68,
    -14, 51, 84, -1, -43, 27, -76, 69, 40, 51,
    -2, 55, -26, -63, -20, 47, -34, -57, 12, -30,
    -17, -61, 9, -13, 38, 18, -62, -41, -52, 90,
    -46, 27, -5, -71, -41, -26, -67, 53, 36, -3,
    7, 11, 10, -6, -22, -77, 23, 63, -10, 64,
    35, -17, 55, 30, -36, -21, 17, 30, 64, -25,
    43, 60, -65, 50, 3, 67, 87, -61, -66, -14,
    38, 7, -65, 37, -46, 31, 87, 2, 51, 7,
    -38, 5, 2, 42, -44, 42, -66, -77, -45, -77,
    18, 4, -11, -60, 36, -6, -13, 14, 48, -56,
    -32, -46, 38, 0, -57, 16, -52, -14, -10, -18,
    39, 11, -12, -55, -9, -93, -62, 2, -119, -35,
    -70, 8, -74, -19, -43, 54, -25, -68, -59, 38,
    25, 14, 44, 6, -19, -53, -98, 20, 66, -40,
    -56, -7, -32, 33, -12, -14, -90, 5, 2, 8,
    35, 37, 13, -2, -41, 56, 49, -7, 64, 66,
    34, 32, 22, -16, 5, 47, -28, 25, -28, 10,
    22, 33, 29, 43, -17, 58, 51, 64, -83, -43,
    -95, -22, 46, -71, -8, -3, -77, 3, -22, -50,
    -63, 38, -28, -22, -19, -31, -33, -31, 33, -12,
    -69, -28, 7, -21, 25, 72, -49, 24, 88, -34,
    -73, 20, 10, -7, 56, -71, -42, 78, -29, 3,
    20, -48, -37, -30, -48, -83, -10, -50, -29, 17,
    68, 83, 93, 11, 72, -17, -49, 55, 44, 43,
    31, -19, 66, 41, -31, 68, 39, 26, -5, 71,
    3, 20, 51, -7, 57, -37, -4, -1, -6, -62,
    86, -40, 67, -21, 45, -35, -30, 21, 55, 6,
    26, -49, 34, -21, -22, 40, -26, -31, -37, 53,
    81, 86, 72, -42, 84, 35, 24, -24, -44, 20,
    -5, -23, -28, 62, 45, 29, 13, 69, -30, 21,
    73, -4, -46, -27, 62, 55, 60, -7, -18, -57,
    18, -9, 95, -15, -38, 36, -39, 12, 73, 63,
    -63, 29, 4, 109, -47, 47, -76, -51, -36, -79,
    3, 35, -41, -100, -36, -70, 71, 14, 79, 39,
    26, 18, 59, -75, -52, 47, 15, 52, 1, 13,
    51, 73, 46, -57, 33, -47, 23, 53, -21, 73,
    62, 11, -58, -22, 62, 11, 60, -14, -39, 47,
    11, 42, -53, -58, 42, 21, 39, -66, -52, -3,
    -33, 48, 44, 74, 10, -79, -45, 10, -42, 13,
    -51, 30, 42, 49, -14, -83, -52, -68, 6, -26,
    28, 31, -23, 18, -9, 10, -63, 10, 69, 47,
    -60, 81, -44, 98, 33, 83, 22, -12, 40, 61,
    -58, 40, 56, -3, 44, 39, -87, 29, -87, 25,
    -50, -43, 26, -67, 0, -44, 13, -12, -72, -24,
    -4, 17, -55, -57, 29, -56, -53, -94, -20, -71,
    16, 65, 25, -74, 55, -65, -25, 38, 43, 31,
    -21, -87, -83, 5, -69, -33, 66, -8, 40, -52,
    -6, 56, 12, 8, -46, -60, 25, -75, 8, -41,
    1, -77, 47, 25, -35, -22, -35, -30, 7, 45,
    -45, 10, -55, 88, -32, 39, -61, -47, 14, -21,
    -33, -46, -18, -67, 65, 37, -41, 67, -42, -83,
    11, -27, 61, -22, -62, 61, -6, 9, -13, -86,
    1, -25, -60, 33, -87, -70, -33, -76, -85, -34,
    -23, 53, 31, 52, 5, 5, -21, -42, -84, -81,
    25, -59, -45, 17, -60, 10, -24, 4, -48, 46,
    -74, -97, 49, -51, 53, 23, 13, -27, 8, 32,
    -55, 35, 36, 20, 33, -26, -46, -73, -35, -72,
    -52, 17, 73, -67, -55, 28, -70, -10, 64, 79,
    -4, -8, -7, 0, 40, -97, -93, 59, -70, 62,
    35, 31, 27, 15, 52, 28, -12, -52, 55, 29,
    44, -48, 0, -30, 16, 73, 6, 64, 57, -34,
    94, -2, 40, -3, -38, 60, -53, 21, 5, 17,
    -21, 44, -10, 11, 24, 63, 33, -71, -51, -68,
    -87, -66, 13, 73, -61, 30, -46, 39, 36, 27,
    81, -77, -74, -49, 9, 33, 58, 29, -7, -21,
    86, -76, -78, 28, 47, 40, -11, -6, 7, -45,
    72, 101, -26, 65, -10, -57, 3, -13, 53, 18,
    -39, -50, 85, 88, 14, 6, -13, 51, 108, 16,
    22, -58, 54, -4, -5, -56, 51, 31, -46, -30,
    -2, 4, -60, 15, -3, 49, -51, -75, 25, -16,
    -35, 63, -20, -67, -15, -40, -31, -63, 61, 51,
    -72, 39, 4, -58, -38, 26, 23, 76, 84, 7,
    56, -62, 3, -71, 20, 30, -42, -58, -24, -49,
    -37, -84, -52, 49, -50, 33, -5, -2, 29, 54,
    13, -15, 62, 3, 12, 85, -48, 65, -54, -21,
    -50, 49, -55, -27, 21, -5, 32, 61, -74, -61,
    -81, 44, 24, -70, -66, 38, 62, -70, 23, -13,
    31, -52, 37, 71, 30, -37, -8, 23, -51, -56,
    -96, 48, -51, 53, -46, -50, 22, -11, -68, -12,
    -60, -66, -58, 19, -9, -37, 29, -33, -69, -7,
    -26, -5, 51, 50, -93, 62, 80, -57, -63, -57,
    -13, -1, 24, 18, 9, -75, 63, 53, 54, 18,
    -39, 14, -55, 62, -70, 64, 64, -51, -78, 33,
    -79, -93, -51, 73, -38, -49, -53, 40, 19, 32,
    -27, -61, 8, 23, 81, -84, -68, 46, 4, 54,
    -32, 68, 24, -42, -35, 4, -8, -34, -55, 26,
    15, 60, -36, -60, -47, -71, 67, -43, -56, 49,
    34, -78, -12, 26, 10, -73, -77, -65, 17, -42,
    -105, 63, 28, -25, 4, -41, -70, -77, 54, -68,
    -87, 60, -72, -43, -4, -69, -86, -63, -22, -29,
    55, 51, 78, -66, -33, 37, 17, -55, 46, -30,
    55, -57, 40, 3, -63, 34, -24, -7, -8, -18,
    -54, 32, -27, 41, 38, -15, 20, -37, -66, -42,
    -77, -66, 14, -11, -55, 6, 37, 54, 8, -9,
    41, -76, -2, 45, 43, 2, -5, 35, 17, -10,
    64, 53, -57, 79, -26, 0, 54, -59, 54, -8,
    -64, -10, 69, 46, -34, 80, 25, 71, 92, 8,
    70, 17, 37, 34, 30, 6, -70, 25, 91, 36,
    -79, 16, -10, 45, -69, -5, -77, -14, 34, 66,
    -8, 73, 15, -57, 26, 6, -59, 48, 93, 50,
    -8, -56, 59, -29, 12, -58, 59, 21, 58, 42,
    -59, 80, -55, -26, 51, -23, 40, 11, 10, -30,
    84, 27, 38, 5, -23, -4, 75, -66, -35, -58,
    -40, 22, -14, 45, 81, 38, 79, 16, 75, 43,
    -10, 20, -61, 87, 61, -80, -43, 60, 12, -19,
    -42, -22, -7, 75, -61, -3, 10, -44, -12, -32,
    48, 42, -12, -52, -60, -39, 58, 68, 8, -89,
    15, -35, 32, 22, 54, 0, -5, -10, 35, 42,
    48, -26, -41, 59, -56, 15, 31, 15, -69, -27,
    5, 10, -66, 30, -42, -10, 27, 58, -14, -41,
    -74, -13, -43, 28, 41, 58, 63, -9, 40, 29,
    25, -41, 66, -9, 58, 62, -4, 61, -17, 57,
    -20, -65, -34, 25, 51, -50, -27, 36, -45, 7,
    -62, 23, -39, 7, 43, 20, -54, 40, 59, -80,
    85, -72, 27, -8, -17, -59, 49, -7, -23, -19,
    31, 51, -67, -85, -51, -49, -83, -30, -39, -11,
    5, 24, -64, -65, -34, -68, -25, -71, -11, -11,
    -78, -39, 44, -9, -69, 57, -26, 6, 76, 47,
    -66, 73, -13, 11, 43, 29, 48, -22, 65, 93,
    -71, -48, 61, -68, -65, 55, 23, 12, 76, 15,
    88, -63, -52, 2, 85, -78, 26, 12, -40, -51,
    23, 15, 6, 27, 52, -46, -89, -19, -7, -23,
    11, -34, 90, -9, -43, 3, -33, -38, 41, -3,
    -41, 50, 76, 13, -39, 27, -33, -46, -20, -14,
    64, -9, -54, 1, 51, 57, -30, -17, 7, 25,
    -33, 73, 22, 82, 57, -50, -48, -16, -74, -58,
    -3, -123, -64, -32, -88, -4, 8, -41, -54, -3,
    1, -61, 4, 46, 57, -44, 47, -52, -60, 69,
    -82, 57, 62, -75, 27, -15, -17, -3, 9, -77,
    68, 40, -66, 44, 24, 30, 10, 31, 25, 74,
    13, 69, 19, 16, 2, -7, -74, 60, -47, 38,
    14, 37, -93, -6, -75, -78, 29, -15, 56, 68,
    -19, -43, 24, 64, -11, -64, 20, -12, -58, 3,
    -7, 15, 76, 17, 50, 9, -43, 6, -79, 63,
    -7, -80, -58, 32, 10, 36, -89, -11, 39, 34,
    -25, -91, 48, 28, 33, 61, 33, -5, 53, 63,
    23, -75, 41, -41, 78, -59, -10, -33, -42, -22,
    39, 37, -4, -57, -46, 36, -45, -83, -46, -15,
    -43, 34, -22, 70, -66, -19, 26, 37, -49, 32,
    -16, -35, 34, -2, -45, 25, 89, 11, -19, -8,
    -32, 49, -3, -34, 16, 16, 6, 22, -50, 13,
    -4, 14, -36, 43, -33, -16, -24, -45, 8, -37,
    -22, 21, 37, -20, 57, 28, 77, 25, 76, -56,
    34, -44, 47, -18, -8, 80, 81, -13, -32, 63,
    -35, -31, -46, 75, 5, 27, -38, 41, -79, -11,
    -7, 53, -4, 1, 65, 30, 67, -42, 51, -6,
    -24, -1, 65, -4, -9, -28, -31, 41, -19, -38,
    14, 0, -28, 68, 66, 1, -28, -29, 85, 22,
    -67, -27, 26, 25, 91, 8, -29, 55, -1, 52,
    -62, -28, -61, 19, -55, 58, -24, -48, 14, -21,
    -51, 47, 26, 26, 55, -37, 3, 62, -20, 34,
    54, -4, 57, -25, -21, 7, -39, -17, -19, 42,
    -26, -47, -53, 84, 2, 23, -62, -38, -76, -44,
    50, 39, -53, -83, -93, -85, -10, -92, 13, -74,
    73, -13, -14, 38, 55, 50, 52, -89, 40, -37,
    58, 57, -14, 23, 17, 28, 58, 38, -22, 9,
    11, -64, 17, -35, 55, 55, 7, 58, -8, 31,
    20, -80, -69, -38, 21, -22, -14, 40, 70, 48,
    8, 45, 12, -81, -91, -107, -83, 48, -23, -69,
    17, -6, -62, -92, 33, -4, -37, -54, -28, 74,
    -81, -31, -20, 62, 0, 61, 6, -18, 37, -10,
    46, 67, 47, 52, -81, 61, -46, 35, 18, 11,
    14, -93, 62, 10, 77, -17, -45, 32, -19, -57,
    -8, -99, -74, -77, -2, -54, -6, -71, -83, -11,
    -8, 29, -51, 62, -57, 11, -93, 54, -39, 47,
    -24, -41, -38, -42, 30, 15, 72, -29, -36, -46,
    -13, 35, -8, -55, 9, -14, -44, -8, 3, -71,
    11, 35, 11, -15, -8, 31, -13, 3, 59, -1,
    12, -54, -54, 4, -17, 82, -15, -72, 67, -60,
    37, -37, 5, -93, 50, -18, -46, -46, 20, -76,
    67, 31, 72, 68, -48, -16, 43, 61, 75, -35,
    6, -2, 36, -32, 78, -26, 31, 49, -78, 21,
    -56, 28, 46, -30, -53, -55, 49, -12, -67, 69,
    48, -16, -16, 3, 90, 38, 2, -13, 19, -51,
    42, 40, -3, 39, 20, -80, -72, 62, -17, -79,
    84, -60, 74, 60, 1, 35, 48, -62, -55, 24,
    24, -61, -58, 54, -53, -90, 42, -43, -22, -18,
    59, 30, 79, -29, 68, -68, 41, 3, -6, 51,
    12, -26, -53, 0, -44, 31, -63, -45, 62, -27,
    -78, 52, -9, 7, 69, 40, -73, 34, 69, -2,
    50, 70, 33, -69, 66, 78, 25, 3, -53, 18,
    -31, 70, -90, -1, 11, -1, 3, 41, -63, 51,
    -38, 27, 9, 18, 67, -30, -55, -36, 59, -73,
    68, -4, 12, 37, -20, -61, 14, 50, 37, -12,
    0, 26, 12, -55, 67, -5, -18, -39, 22, -18,
    -33, 50, 102, -60, 68, -58, -3, 84, -42, -41,
    19, -45, -38, -77, 25, 46, -2, 8, 77, 71,
    -36, 19, -3, 29, 18, 41, -36, -54, -60, -48,
    -36, 20, 13, 6, 59, 67, 40, 65, -5, 21,
    -43, 0, -10, -78, 63, -20, 47, 31, -35, 3,
    -31, -55, 50, 37, -35, -41, 66, -51, -50, -77,
    44, 40, 57, -82, -11, 7, -1, -10, -98, -102,
    -34, -5, -2, -27, -86, 35, -58, -6, -74, 40,
    49, -40, 50, -37, -86, -15, -54, -1, 0, -41,
    -28, 9, -67, 25, -58, 25, -59, -80, 10, 5,
    -77, 54, -53, 36, -38, 76, -40, -53, -75, -52,
    -24, 50, -44, -6, -21, -25, -2, 41, -28, -54,
    54, -47, 54, 4, 1, 78, 30, -40, -61, -74,
    -41, 32, 37, 62, -60, 67, 77, 50, 2, -48,
    88, 10, 13, -2, 69, -51, 43, -63, 85, -68,
    -4, 31, 28, 33, -9, 35, -35, 16, 28, 57,
    -38, -5, -48, -30, -46, 9, 51, -3, 21, -25,
    -46, 37, 13, -46, -72, 30, -14, 0, -43, -40,
    -40, 76, -67, -15, -16, -10, 45, 82, 52, -49,
    -34, 25, 33, -72, -52, -30, -2, -5, -63, -6,
    -15, 3, -41, -32, 70, -34, 33, -67, -31, 34,
    22, -53, 68, -17, 2, -1, 58, 29, 37, -13,
    79, 33, 29, -22, -54, 56, -63, -74, 18, -12,
    -67, 50, 10, -42, 36, 24, -63, -30, -60, -42,
    14, 19, -43, -36, -66, -39, 14, -9, 18, 54,
    52, 1, -92, -46, -100, -14, 37, -2, 27, 67,
    43, -17, 74, 52, -56, 17, 34, 41, 93, -31,
    6, 80, -23, -30, 72, 35, 61, -25, 49, -73,
    -43, 21, -58, -10, -35, 91, -10, 44, 26, 80,
    7, 44, -39, -46, 63, 42, -35, 50, 23, -55,
    56, 94, 4, 64, -25, -62, -59, -24, 73, 32,
    66, 32, -5, -40, -67, -28, -32, 67, -12, -11,
    30, 77, -3, 46, -50, -74, -10, 44, 58, 32,
    59, -37, 41, 66, -54, 76, -66, 41, 47, 77,
    -26, -32, -32, 63, 11, -31, -8, 47, -40, -56,
    -33, -3, 1, -21, 15, -24, 42, -49, 66, -2,
    34, 11, -80, 47, -34, -80, -10, -12, -52, -45,
    42, -100, -1, -11, -69, -7, -91, -13, -26, 27,
    -27, -67, -2, 63, -52, 67, 55, -24, -16, 54,
    -3, 2, 7, 11, -48, -30, 80, 57, 18, 89,
    -32, 24, -26, 76, 57, 30, -2, 68, 61, 53,
    -44, -19, -23, -23, 22, 83, 44, -24, 57, 4,
    102, -75, 37, -47, 33, 72, 54, -32, 28, 12,
    -17, 77, 70, 49, -30, 60, -34, -40, -13, -18,
    41, 36, 37, -17, 45, 79, -61, 77, 13, 19,
    29, 51, 9, -15, -39, -49, 0, -44, 50, -69,
    81, -62, 86, 28, -72, 27, -54, -77, -17, -25,
    27, 55, -70, 91, -37, -13, 83, -16, -3, 0,
    39, -24, 57, 25, -62, -61, 17, 12, -12, 36,
    37, -36, -3, 41, 36, -3, 15, 14, -77, -66,
    19, 11, -62, -44, -63, 20, 63, 81, -60, 63,
    -19, -70, 38, 66, 7, -8, 5, 28, 26, -27,
    13, 41, 26, 15, 6, 10, 44, -37, 62, -6,
    -53, 82, -41, -70, 4, 91, -37, 43, -48, 41,
    71, -4, -68, -47, -47, -17, -27, 44, 36, -40,
    23, -62, 64, 21, 104, 49, -25, 45, -43, -55,
    61, -14, -69, -59, -41, -49, 3, -77, -26, 46,
    -53, 81, 102, 2, 4, -65, 109, 65, 4, 37,
    -59, -75, 82, -90, -24, -38, -61, 36, -36, 5,
    -10, 39, 35, -80, 34, 62, -70, 33, -31, 56,
    -22, 49, -53, -39, 23, 33, -26, 78, 8, 35,
    -32, 5, 14, 54, 86, 40, 82, -49, -74, 25,
    13, -5, -35, 11, -11, 45, 38, -9, 59, 15,
    59, -70, -29, -45, 51, -35, -76, -37, -4, 53,
    54, -60, -48, -46, -8, 21, -39, 70, -6, 27,
    -16, 37, 26, -5, -14, 57, 22, -50, -26, -60,
    33, 79, -39, 20, -75, 64, -52, -17, 5, -15,
    70, -6, 37, 31, 16, -86, -41, -10, 5, 38,
    76, 35, -55, -86, 67, 14, -62, -24, 27, -6,
    74, -6, 8, 86, -64, -10, -45, -41, -55, 41,
    -23, 26, 3, 35, -64, -27, -11, -52, 45, 42,
    -46, -48, -45, -77, -56, -29, 7, -35, -72, 39,
    63, -5, -23, -40, 37, 17, -33, 54, 41, 68,
    55, -42, 72, 7, -60, 62, -46, -31, 17, 74,
    21, -57, -43, 39, -10, 23, 71, -52, -68, -13,
    -16, -32, 89, -40, 61, 16, 69, -79, 57, -44,
    0, 18, 48, 28, -35, -3, -3, 27, 2, -32,
    46, 80, 37, -57, 9, 20, -44, 59, 22, 44,
    51, -7, 70, -20, 59, -68, -66, 41, 21, -84,
    45, -10, 20, 54, 66, -33, 39, -63, -3, 4,
    20, 30, 65, 10, -2, -56, -21, 36, 32, 33,
    16, -85, 14, -26, -22, 4, 66, 51, 51, -15,
    39, 31, 65, 8, -60, 50, -50, 30, 63, 46,
    78, 82, -65, 12, 38, 1, -28, 83, -37, -66,
    -58, -62, 1, 60, -3, -47, 64, 6, -23, -2,
    41, 6, 37, 34, -53, 73, 55, 0, 64, -11,
    -23, 15, -60, 11, -39, 4, -18, -17, -35, 72,
    22, -80, -55, -17, 36, 50, 72, -56, 66, 68,
    -67, -60, -59, -14, -13, -73, -12, 50, -20, -55,
    -57, 22, 22, -44, -56, 40, -35, -83, 56, 33,
    -30, 6, 48, -67, -37, -24, -96, 69, -74, -14,
    39, 86, -30, 78, -20, -77, -93, -58, -13, 34,
    -32, -28, 37, -40, -1, -4, -34, -61, 67, -50,
    4, 21, 10, -25, -49, -30, 32, -20, 21, 44,
    33, -26, -55, -22, 15, -7, 92, 44, -47, 60,
    -36, -9, 60, -49, -10, -65, 50, 65, 86, -14,
    -48, 19, -55, -27, -53, 66, -2, 16, 27, 26,
    -18, 95, -73, -9, -38, -30, 64, 56, 38, 24,
    39, 58, -17, -32, 24, 54, 69, 12, 74, -56,
    29, 82, 5, 30, 62, -58, 59, 47, 30, 29,
    55, 34, 40, -94, -84, 54, 86, -3, 25, -11,
    36, -14, 57, -39, -52, 65, -23, 63, -7, -25,
    86, 56, -32, 34, 37, -47, -6, -74, 6, -61,
    66, 48, 71, 9, -24, 32, 10, 27, -9, 88,
    -68, -62, 24, 93, -5, -13, -48, 77, -88, -29,
    46, -48, -50, -28, 35, -15, 4, 5, 38, 88,
    -1, 14, 16, 32, 77, 14, 57, -16, 14, -56,
    35, -41, 1, -70, 1, 49, 73, 1, 0, 80,
    -24, 61, 80, 71, 47, 52, 67, -9, 80, -41,
    -22, 43, -20, -38, 18, 8, -8, -26, 12, 72,
    -9, 9, 6, 50, 61, 19, -17, -21, -27, -23,
    -18, 20, 17, -39, 31, -40, -38, 2, -76, -31,
    29, 8, 7, -50, -18, 48, -11, 14, 8, 21,
    16, -47, -67, -74, 61, -53, -81, -8, -16, 31,
    -36, 44, -97, -111, 40, -32, -7, 9, 2, -68,
    2, -53, 68, 17, 45, 58, 36, 24, 16, -70,
    70, -30, 60, -29, 6, 53, 11, -20, 29, -101,
    -9, -22, -72, -5, 10, -78, 72, 56, 62, -61,
    -67, 36, 62, -54, -71, -8, 76, -20, -84, -26,
    -50, 39, -68, 35, 4, 1, -40, 39, -59, -34,
    84, -30, 6, 68, -56, 19, 2, -33, 71, 71,
    14, -4, 48, -24, 35, -55, -54, 75, 81, -27,
    -5, 40, 64, 64, 65, -29, 34, 85, -44, 48,
    30, 26, 99, -3, -14, -39, 91, -33, 90, -40,
    53, -24, 92, -22, -26, -1, -50, 68, 45, -26,
    -56, -19, 13, -26, 76, -31, 33, 65, -44, -45,
    -62, 22, 67, -44, 19, 59, 61, 46, 24, 24,
    -3, 74, 3, 18, -14, 56, -80, -23, -85, 32,
    -16, -52, -38, 21, 64, 73, 57, -41, 63, 81,
    14, -66, -42, -63, 30, 78, 68, -32, -16, 32,
    -42, -3, 32, -30, 38, -1, 77, -61, 74, 54,
    -75, 16, -7, 35, 52, -23, -57, -42, 53, -82,
    -85, 81, 36, 40, 60, -61, -32, 4, 56, -36,
    1, 32, 31, -51, -78, -43, 40, 89, 18, 46,
    45, -20, -20, 60, 16, 37, 44, 50, 19, -11,
    -39, -33, -33, 42, 59, -51, 77, -13, -38, 20,
    -57, -36, -12, -24, 47, -22, -86, -64, 63, 32,
    -82, -76, -63, 49, 35, 28, 46, -7, 66, -64,
    66, 37, 39, 37, -31, -37, -43, -79, -6, 25,
    13, -30, 2, -97, -71, -90, 55, -108, 13, 21,
    -29, -11, 58, -61, -93, -16, -7, -25, 9, 33,
    41, 35, 43, -44, -4, 26, 36, -11, 62, -52,
    -49, -111, -15, -55, 71, -50, 48, 86, 74, 29,
    44, 41, 54, -10, -66, 81, -69, 81, 9, 50,
    29, 67, 68, -79, 53, 0, -42, -39, -2, 62,
    -69, 12, 39, -76, 16, -31, 1, -31, 71, -74,
    57, 0, 36, -2, -63, -28, -21, -5, -42, 50,
    -35, -22, 56, 5, 28, 67, -10, 15, 44, 12,
    61, 27, 58, 63, 32, 26, 54, 56, 13, 12,
    -27, 6, 50, 3, -28, 25, 13, 14, -27, -7,
    -10, 62, -36, -47, -7, 2, 52, 36, -9, -77,
    -36, 25, -7, -35, 18, 39, 37, 70, 77, 0,
    67, 33, 36, 22, -75, 14, 71, 19, 18, -14,
    -59, 19, 29, 19, 58, -58, 72, -12, -23, -39,
    -64, 20, -16, 4, -79, -44, 32, -44, 57, -67,
    -44, 33, 70, 36, 35, -47, 18, 4, -32, 17,
    26, -51, -8, 9, 75, -53, 103, 17, 10, -62,
    -47, -15, 11, 20, 78, -8, 73, -58, 36, -60,
    -52, 68, -49, -34, -35, -2, 63, 43, -65, 6,
    -50, -41, -16, -6, 30, 47, 45, 64, -9, -15,
    97, 9, 52, -51, 31, 47, 83, -49, -77, 22,
    -4, 51, 2, -29, 13, -35, -49, 59, 16, 10,
    3, 52, 3, 29, 33, 38, -31, -84, -37, -74,
    -51, -1, -9, 12, -40, -31, -4, 67, 47, 80,
    52, 64, 26, -45, 35, 88, -3, -19, -63, 61,
    -74, -42, 26, -39, 18, -30, 80, -2, 30, -43,
    14, 48, -88, -10, -12, -10, 36, 73, -42, 2,
    -65, -37, -63, 14, 36, 89, 54, 1, -23, 15,
    -49, 10, -24, -64, 4, 48, 3, 28, -49, -24,
    -82, 97, 79, -50, -57, -71, 53, 19, -50, -31,
    45, -21, -78, 20, 87, 61, 0, -5, 13, 59,
    54, -44, 42, 66, -50, -41, 72, 54, -58, 34,
    28, 23, 67, 30, 23, 59, -8, 2, -9, -2,
    31, -14, 9, 71, 28, 61, 1, -23, 47, -66,
    27, 59, -35, -27, 56, -4, -53, -33, -72, -1,
    28, -30, -9, -9, -18, -19, -28, 4, 0, -9,
    -5, 33, -24, -4, -4, 37, 44, 57, 21, -64,
    0, -46, 15, 98, -12, 58, -35, 68, 39, -41,
    -92, -23, 55, 89, -71, -50, 29, -13, -80, -40,
    2, -67, -15, 42, 19, -51, 84, 27, 42, -16,
    -48, 91, -76, 31, -47, -26, 67, -57, -4, -28,
    57, -46, 4, -30, 68, 85, 8, 36, 88, -60,
    -9, 70, -17, -71, 65, 54, 33, 53, -14, -57,
    -94, 21, -26, 67, 11, 33, -9, -19, -29, -64,
    -97, -33, -74, -87, 47, -58, -14, -30, -79, -30,
    -79, 18, 68, -16, 16, 34, 22, 1, -18, 4,
    -7, 70, 14, 54, 45, 67, 16, 4, -21, 40,
    65, 70, -61, 9, -55, -42, -73, -16, 80, 35,
    -52, -18, 45, 47, 48, -46, -17, 36, 19, -31,
    -52, -13, 76, -24, -18, 28, -61, -41, -3, -35,
    73, -6, 58, -20, -4, 77, -69, -60, -38, 19,
    -20, 28, -26, 38, -82, 18, 48, 27, -32, -27,
    15, -54, -57, 5, -58, 28, -54, 40, 39, 74,
    -46, 0, 76, -13, 29, 25, 16, -12, 26, 14,
    -55, -31, -74, -78, 49, 65, -54, -66, -52, 31,
    62, -9, -29, -61, 1, 40, 31, -5, -22, 32,
    53, 64, 30, 69, 64, 20, 1, 55, 11, 73
};

/* shape=[32]  float_scale=0.000497 */
static const int32_t conv1_bias[32] = {
    60, 25, -115, 74, -43, -23, 53, 35, -42, -7,
    -89, -47, -28, -2, -35, 61, -11, -79, 32, -50,
    94, -3, 115, 96, 127, 16, 86, 1, 35, -55,
    -93, -96
};

/* BatchNorm1 pre-folded (Q7: scale=128 -> multiply by 1.0) */
/* shape=[32]  Q7: value/128 = effective float multiplier */
static const int32_t bn1_scale[32] = {
    327, 357, 278, 319, 369, 277, 304, 354, 245, 311,
    375, 269, 258, 279, 277, 353, 291, 274, 349, 289,
    286, 318, 284, 279, 267, 307, 289, 377, 306, 260,
    369, 370
};

/* shape=[32]  additive offset (same int32 scale as activations) */
static const int32_t bn1_offset[32] = {
    0, 0, 0, 0, 0, 0, 0, 0, 0, 0,
    0, 0, 0, 0, 0, 0, 0, 0, 0, 0,
    0, 0, 0, 0, 0, 0, 0, 0, 0, 0,
    0, 0
};

/* ------------------------------------------------------------------ */
/* CONV2  (32 -> 64, kernel=5)                                         */
/* Layout: [out_ch][in_ch][k]  = [64][32][5] = 10240 elements          */
/* ------------------------------------------------------------------ */
/* shape=[64, 32, 5]  float_scale=0.000837 */
static const int32_t conv2_weight[10240] = {
    -93, -38, -102, 46, -85, 62, 22, -81, 71, 30,
    -27, 67, -62, 54, 7, 3, 37, -61, -17, 57,
    28, 55, 86, -60, -28, 70, -50, 15, 18, -98,
    24, 84, -16, -85, -86, 21, -41, -59, 79, -39,
    -70, 73, 93, 28, 101, -10, 86, -52, -92, -21,
    -55, 11, 0, 15, -24, -8, -66, -31, 57, 105,
    82, 15, -16, 71, -9, 1, -11, -68, -62, -88,
    -18, -110, -9, -32, 21, -60, 16, -18, -74, 63,
    -88, 73, -29, -70, -88, -76, -23, 74, 5, -58,
    78, 75, 31, 67, 53, 9, 60, -81, -36, -57,
    -13, -65, 81, -17, 23, 92, 56, 30, 112, -78,
    80, -81, 97, 6, -64, -40, -71, 35, 55, 50,
    60, 105, -77, 39, 2, 64, 30, -15, 47, -37,
    -52, -51, 64, -3, -74, 29, -1, -55, 104, 56,
    71, -17, -51, -72, 15, -78, 41, -107, -92, -1,
    7, -36, -37, -61, -47, 13, -85, -16, -17, -12,
    97, -68, 38, 50, 10, -8, 54, -83, -37, -2,
    -9, -77, 47, 68, -96, 14, -74, -19, 15, 79,
    93, 39, 11, -70, -40, 92, 7, -23, -23, 41,
    62, -32, 19, 61, 40, 57, 68, 35, 14, -98,
    -17, -41, 11, -26, -101, 78, -52, -102, -26, 24,
    -17, -84, 28, 44, 82, -86, -42, -52, -33, -16,
    89, -19, 88, 15, -63, -6, 59, 55, -22, -24,
    -65, -37, -10, 74, -7, 61, -86, 28, -39, -37,
    93, -13, -69, -69, -29, -30, -100, 47, 0, -19,
    77, -101, 31, 74, 4, 53, -41, -90, 103, -101,
    -36, 80, -66, -30, -65, 23, -53, 17, 69, -92,
    70, -35, -95, 44, -74, 63, -9, -37, -71, 22,
    -77, 44, 13, -84, 42, -71, -6, -22, 78, -99,
    -17, -46, -6, -4, -64, 26, -13, -65, 16, 48,
    65, 35, -53, -71, 40, 24, 9, 52, -25, -115,
    -50, -94, 57, 63, -63, -14, -26, -32, -62, 16,
    -43, -70, 7, -45, 20, 9, 18, 53, -72, -43,
    93, 2, -8, 58, 70, 25, -84, 80, -96, -112,
    12, -35, -66, 86, 1, -46, 36, 74, -6, 64,
    69, 36, -51, -69, -7, -33, -69, -95, -46, 5,
    -38, -56, -36, -40, -17, 55, 72, 92, 73, 5,
    -51, -16, 2, -49, 67, 48, -44, 23, 30, 14,
    -64, 98, -21, 32, -48, 35, -34, -55, -89, 34,
    7, 20, -72, 1, -35, 22, 94, -93, 18, -80,
    19, -12, 50, -78, 52, 73, -66, -58, 66, -66,
    33, -30, -83, 11, -56, -68, 33, 44, 66, 86,
    35, -16, -19, 84, -74, 74, 54, 43, 48, -70,
    33, 17, 23, -54, 70, -15, -12, -77, 64, -86,
    69, 58, 13, -86, -40, -3, -60, -32, -31, -23,
    73, 96, -43, 61, 21, 72, -86, -43, -6, 106,
    66, -16, -57, -37, 9, 2, -37, 33, -12, 63,
    -59, -69, 42, 6, 47, 97, -30, 97, 45, 84,
    44, -17, 33, 15, -71, -31, 78, 4, 15, 3,
    35, -58, -18, -21, -44, -36, -6, 2, -16, -14,
    -23, 25, -91, 89, -57, 59, -93, 4, 2, -68,
    -6, -88, 42, 49, -28, 24, -39, 36, -82, 85,
    -18, 11, 71, -96, -41, 22, -89, 1, -2, -67,
    -5, -65, -10, 67, 84, -89, 23, -79, 15, 37,
    -71, -73, -85, -16, 34, -64, -4, -17, 97, -81,
    -25, 24, -47, 82, -80, -16, -43, 2, -26, 80,
    -73, -68, -37, -88, -86, 36, 82, -26, -34, 49,
    79, -78, -54, 86, 36, -82, 1, -58, -56, -20,
    80, -69, 49, -87, -10, 82, -41, -44, -60, -91,
    29, -91, -65, 93, 60, -52, 12, -15, 91, -84,
    -91, 38, -18, -39, 50, 54, -76, 65, 55, 4,
    -75, 27, 44, -106, -81, -6, -100, -37, 90, 2,
    62, 20, 83, 22, 26, 86, -53, 94, 6, 92,
    -44, -45, 73, -68, 35, 100, 19, -75, -77, -34,
    -73, 40, -3, -22, 12, 49, 3, 52, 5, 29,
    23, -22, 58, 104, 63, -26, -35, 98, -51, 1,
    -51, -24, -21, 55, -46, -34, 33, -1, 6, -82,
    -47, 73, 50, -89, -42, 23, -67, -51, -58, -51,
    -47, 75, -82, 68, -77, -27, -23, 83, -78, -63,
    -79, -39, 54, 101, 80, -26, -46, 44, 74, 98,
    72, 4, -88, -53, 55, -84, -70, -72, -31, 23,
    85, 58, 25, 3, -36, -47, -39, 20, 81, -47,
    -17, -17, -27, -61, 9, -68, -4, 0, 39, -5,
    -31, -47, -13, 23, 22, -24, 76, 12, 46, -51,
    -80, -97, -23, 77, 68, 25, 47, -53, -30, 32,
    -85, -78, -59, 40, -3, 10, 45, -79, -65, -41,
    50, 18, -70, 75, -52, 68, 33, 18, 69, 24,
    -93, 63, 96, -21, 75, 63, -11, 3, 3, 98,
    33, 75, -82, -26, -64, 28, -22, 21, 41, -38,
    2, -78, 8, 14, 64, 36, 32, 49, 74, 10,
    78, -50, 36, 0, 88, -112, 58, -85, -37, -26,
    -38, -41, -77, -74, -24, 65, -11, -59, -16, -53,
    -21, 78, -112, 27, 80, 58, -46, 4, 71, -57,
    63, -24, -94, -33, -12, -45, -48, -13, 42, 26,
    -97, -13, -18, 62, 34, 61, 17, -10, -40, -20,
    13, -13, 78, -71, 85, 34, 48, 56, -78, 47,
    -104, -50, -11, 91, -2, -71, -74, 18, 6, 29,
    -30, 50, 38, -10, 62, -68, -53, 21, -14, 15,
    -49, 47, 70, 89, 44, -62, -54, -45, -28, -38,
    45, -95, -20, 99, -74, -34, 65, -28, -23, 74,
    -73, 68, 65, -19, 5, -56, 1, -82, -40, 64,
    18, 52, 40, 81, 12, -85, -77, 85, 85, 113,
    -56, 76, -60, -3, 59, -70, -107, 56, -77, 66,
    42, 59, -9, -36, 3, -20, -99, 24, -77, 88,
    -54, -8, -71, 63, 73, 61, 58, -80, 102, -10,
    77, 21, 55, -44, 45, -11, -73, 78, -46, -53,
    61, -100, 18, 67, -3, -98, -66, -15, -17, 80,
    63, -74, -41, -78, 22, 56, -38, -6, -21, -77,
    77, 27, 87, -75, -9, -28, 26, -16, -67, 83,
    74, 94, 63, 75, -49, -8, -34, -20, 5, 33,
    -64, -7, -34, -38, -44, -49, -48, -68, -13, -66,
    -103, 70, -54, 70, 24, -15, 90, -63, 56, 76,
    63, -89, -5, -19, -61, 58, -37, 63, -57, -44,
    23, 3, 53, 30, 76, -72, 11, 61, -57, -48,
    87, -89, -74, -83, 32, 21, -73, 78, 20, 48,
    -101, -74, -72, -56, -86, 36, -13, -54, 65, 18,
    12, -54, -18, -71, -50, 85, -53, 70, 72, 76,
    72, 89, 59, -6, -15, -101, 29, -38, 10, -24,
    54, 24, 88, 81, 45, -22, 37, -55, 57, 89,
    -9, 3, 36, 92, 40, -56, -14, -90, -1, -73,
    19, 4, 99, -28, 16, -14, -38, -44, -49, -25,
    -4, 43, 9, 62, 6, 14, -70, 60, 64, 47,
    -74, -22, -99, -97, 55, 53, 70, 47, -14, 43,
    -39, -80, -26, -58, 76, -90, 66, -32, -6, 68,
    -59, -40, 47, -33, -2, 30, -3, 65, -53, 29,
    36, -65, 0, 54, -55, 83, -40, 48, 20, -62,
    89, -11, -5, -26, -90, 46, -34, 58, 30, 41,
    40, 29, -61, 0, -45, 85, 65, 14, -73, -82,
    -94, 48, 41, -90, -83, 73, 34, -70, -25, 57,
    25, -30, -67, -59, -38, -56, -62, 75, -5, 12,
    -70, 28, 86, 36, -20, -31, 98, -23, -25, 6,
    -53, 8, -14, -65, -4, 29, -109, 14, 0, -69,
    91, 64, 51, -32, 8, 55, 3, -35, 18, -78,
    67, 15, -27, 8, -52, -33, -70, 5, 28, -36,
    51, 83, -65, -42, 5, -26, 66, 82, -56, 11,
    16, 68, -56, 40, -54, -72, 89, 72, -82, 41,
    -79, 74, 24, -19, 7, -34, -11, -74, 22, -80,
    -12, -97, -64, -23, 15, -93, 25, 22, -61, -7,
    -24, -56, -6, 62, 8, -73, 82, -17, -93, 35,
    -83, 74, 20, 48, -81, 29, -11, -28, 47, -66,
    -50, -85, -48, 51, 60, 33, -18, 2, 40, -27,
    -95, -36, -41, 67, 12, 17, 61, -81, -44, -68,
    -17, -87, -18, -42, 21, -88, -58, 54, 68, 11,
    -31, -92, 79, -1, -5, 1, -31, 30, -52, -18,
    70, -22, 67, 23, -93, 21, 7, -47, -36, 89,
    53, 112, 105, 26, -11, 44, -54, 67, 92, 77,
    79, -23, -45, -15, -76, 83, -59, -9, -53, 20,
    -72, 5, 68, -11, 12, 48, 71, -97, -30, -55,
    -55, -80, 5, 67, -18, -1, -30, -98, 95, 17,
    -90, 10, 51, 55, 82, 87, 91, -23, 50, 21,
    -57, 38, -74, 79, 49, 103, 75, 89, -93, -86,
    -78, 60, -50, 57, 23, 94, -52, 0, -93, -93,
    -73, 52, -21, 4, 73, 51, 26, -66, 62, 91,
    -85, -8, -85, -27, 15, -88, -62, 33, 88, -38,
    44, -96, -59, 49, -21, 39, -58, 14, -19, -21,
    33, 24, 63, -16, -30, 54, 17, -90, -87, 34,
    48, -39, 83, 45, 42, -6, 38, -35, -87, -46,
    28, -47, 35, 78, 44, 56, -14, -9, -21, 76,
    -63, 34, 45, 75, -14, -34, 98, -56, -14, -78,
    80, 55, -41, -15, 6, -79, 114, 52, 23, 81,
    39, 32, 39, -43, -81, 35, -15, 36, -86, -7,
    75, -5, -68, 17, 80, -26, -9, 43, 52, 24,
    2, 72, 85, -92, 41, 77, 64, 42, 43, 61,
    2, 86, -9, 34, 69, -5, 53, 58, 20, -54,
    -53, 29, 61, -85, -4, 5, -20, 65, 92, -26,
    51, 85, 13, 40, 76, -23, -105, -102, 62, -59,
    77, 27, -80, 113, 67, -17, -27, -69, -54, 0,
    -6, -63, -2, 42, 17, 14, -65, -35, 32, 64,
    9, -83, 35, -57, -92, 55, 41, -25, 37, -48,
    24, -101, -51, -22, -4, 57, 5, -44, 79, 41,
    -35, -2, 101, -29, -121, 96, 53, 33, -3, -32,
    -1, 54, -29, -29, -8, 19, -107, 15, 55, -69,
    79, 13, 39, 49, -21, 77, -96, 44, -13, -8,
    -46, -57, -50, 41, -46, 98, -9, -68, -44, -18,
    -50, -65, 43, 40, 0, -68, -99, -29, -80, 18,
    14, 23, -13, 81, -69, -65, -53, 44, -84, 7,
    84, 52, 39, -41, 1, 11, 72, 49, 18, 6,
    58, 45, -3, -62, 11, 10, 58, 56, -46, -31,
    -66, 72, 15, -54, 76, 64, -25, 49, -9, -28,
    59, -29, -41, 26, -40, 71, 66, -47, 40, -5,
    65, -9, 7, 26, -98, 16, -107, -24, 37, -70,
    4, 56, 11, -12, -13, -26, 12, 77, 31, 70,
    65, -13, -23, 42, 2, 33, -78, 26, 15, -102,
    17, 24, -5, -96, 78, -78, 39, 4, -6, -100,
    96, 77, -59, -7, -79, -51, -16, 86, 3, 67,
    -79, -23, 19, -44, -26, 24, 45, -26, -21, 41,
    -15, 52, 62, -61, 8, -14, 71, -26, -27, 52,
    27, 75, -34, -86, -1, 89, 56, -66, 99, -64,
    111, -22, -38, 40, 81, 75, -56, 10, 50, -36,
    0, 80, -19, 63, -94, -22, 12, -25, -46, -22,
    -44, 43, 37, -62, 39, 63, 46, -62, -57, -2,
    47, 66, -74, 100, 56, 25, 5, -2, -72, -109,
    63, 82, 1, -82, 4, -54, 18, 78, 97, 45,
    23, 122, -3, -8, -89, 60, 26, 39, 84, 53,
    -68, -57, -71, 97, -6, -65, 31, -66, 1, 45,
    69, 24, -13, 5, -30, -88, -48, 59, 56, -111,
    38, 85, -88, -11, -57, 9, -44, 65, 40, -54,
    -78, -77, -19, 20, -48, -35, -13, -84, 31, -97,
    9, -84, -52, -8, -38, -57, -15, -41, -14, -2,
    8, -94, -41, -27, 9, -70, 43, 1, 21, 2,
    -2, 28, 47, -24, 36, 57, 17, 1, 46, -7,
    80, -42, 13, 21, -115, 44, -67, 36, 3, 10,
    -72, 58, 75, 33, 43, -51, 89, 48, -95, 13,
    -10, 24, 16, 67, -19, -19, 5, 58, -73, 107,
    -25, 58, -83, -32, 34, -3, -49, -89, -59, 114,
    28, -56, 40, -6, -19, -76, -51, 60, 96, -96,
    0, -6, -71, -67, -63, 5, 65, 20, -26, 33,
    -70, -40, 21, 73, 11, -42, 0, -102, 47, -53,
    -33, -78, 19, -44, 26, -63, 49, -72, -71, -67,
    86, 42, -53, -6, 87, 7, 56, -30, -4, 100,
    -2, -61, -26, 88, 70, -31, -115, 61, -20, -19,
    76, 58, 22, 39, 26, 16, -44, 20, 74, 71,
    -61, 2, -22, -68, 28, 55, -10, -65, 45, -72,
    18, -7, 5, 40, -95, 14, 13, -57, 64, 37,
    -27, -8, 56, -45, -41, -49, -21, 40, -11, 68,
    -92, 13, 61, -16, 74, 39, -108, -45, 61, -3,
    86, -76, -39, 62, 103, -76, 29, -97, -56, 65,
    -42, -2, -40, -90, -67, 27, 47, -15, 80, -67,
    -24, -94, 84, 14, -3, -30, -95, 95, 34, -18,
    21, 24, -46, 82, 4, 28, 46, -56, 44, -54,
    -74, -41, -24, 74, 12, -71, -73, -53, -91, -37,
    21, -78, 20, -26, -23, -63, 43, -22, 8, 11,
    47, 59, -3, -23, -7, -72, 31, -25, 81, 75,
    30, -49, -31, 70, -43, 72, -67, 2, 55, 76,
    -1, 10, -21, -29, 82, -31, -46, 60, 90, -55,
    -48, -69, 21, -32, -53, -53, -28, 36, -95, 15,
    -45, 93, -58, 75, -23, 75, -16, -31, -12, 36,
    48, 103, 2, 29, 53, -16, -23, 50, -30, 4,
    66, -31, -35, 107, 37, -77, -87, -14, -44, 82,
    90, 74, 91, 73, 84, 14, 64, 20, 33, -62,
    57, -101, 12, -50, 8, 18, 7, 83, -115, -117,
    23, -64, -50, -56, 68, -38, -71, 87, -38, 4,
    -41, 15, 81, -43, -79, 63, -62, 45, 58, 47,
    24, 77, -20, 61, -31, -40, 38, 57, 48, 55,
    -13, 28, 59, -82, -11, 57, -11, 71, 25, -30,
    61, -45, 42, 64, 64, 66, -6, -82, 63, 8,
    -41, -14, -62, 55, -84, 30, -85, -54, 62, -3,
    64, 75, -27, 2, -63, -46, 41, -26, 81, 50,
    47, 74, 2, -14, -16, 102, 73, -64, 17, -31,
    78, -39, -68, 26, -50, 85, 92, -76, -5, -6,
    -107, -82, 88, 52, -29, 25, -29, 22, -18, 35,
    -59, 84, -2, 95, -50, -16, 84, -89, 19, 52,
    -1, -74, -73, 35, -92, -60, 63, -30, -111, -41,
    13, -39, -36, -69, 84, 66, -81, 55, 78, -42,
    30, -89, 78, -43, -72, -75, -99, 82, -83, -77,
    31, 50, -40, 47, -8, -78, 38, 39, -97, -82,
    -14, -56, -66, 14, 15, 39, -65, -43, -97, 55,
    -88, 18, 75, 32, 59, 76, -3, -44, -19, -84,
    -61, 50, 55, 41, -85, -83, 76, -8, -73, 23,
    53, 47, 64, -56, 56, -75, 39, -70, -14, 84,
    51, 28, -17, 32, 4, 73, 50, 79, -24, 52,
    71, 38, -41, 35, -56, -87, 76, -96, 62, -28,
    -23, -68, -31, 31, -52, 71, 32, 66, -103, -66,
    5, -23, -49, -46, -81, 86, 60, -72, -61, 109,
    79, 36, -32, 38, 29, -28, 42, 93, 65, -99,
    23, -11, 47, -60, -42, 79, 79, 42, 78, -73,
    68, -90, 37, 59, 83, 48, 46, 74, -104, 85,
    -40, 5, -97, -109, 62, -80, 47, 81, 47, -65,
    -11, 67, -97, -36, -93, -92, -34, -43, 111, 8,
    -33, 6, 35, 57, 1, 53, 4, 50, -97, 65,
    -28, -32, -40, 58, 83, 73, 74, -28, -48, -3,
    -14, 64, 48, -14, -79, 44, -41, -16, -42, 84,
    53, -39, 23, -32, -22, 50, 0, 5, 74, 20,
    36, -40, 89, 49, -45, -88, -24, -88, 26, 82,
    -84, -82, 61, -74, 13, -37, 54, 74, 49, -101,
    -56, 90, 81, -54, -79, 64, -14, 75, -47, 79,
    36, -35, -44, 88, 25, -63, 55, -73, -3, -38,
    -68, 67, 60, 64, -44, -33, -36, 56, 67, 63,
    -26, 33, 5, 28, 10, -76, 63, -62, -13, -79,
    -32, 87, 74, 78, -87, 87, -65, -4, 71, 12,
    45, 26, -76, -35, -31, -1, 19, -46, 49, 7,
    35, 30, -79, 10, -98, 36, 105, 46, 57, 44,
    -19, 3, -2, 79, 33, 83, -69, -58, -63, 49,
    -39, 41, -34, -88, -46, 23, 37, -85, -87, 22,
    -18, -26, -66, 39, 55, -17, 107, -78, -59, 44,
    -61, 52, -53, -91, 4, 51, -57, -18, 8, 82,
    38, 10, -16, 9, 33, 102, -11, 91, -59, 45,
    -72, 103, 81, 50, -38, 49, -46, 13, 50, 67,
    18, 31, -54, 52, -10, 1, -79, 50, -105, -79,
    92, 98, 52, -42, 105, -31, -29, 66, 2, -27,
    37, 75, 75, -53, 10, -9, 16, 14, 18, -78,
    -21, -1, -61, 0, -96, -31, -26, 56, -62, -54,
    30, 45, 73, -24, 9, -59, 57, 86, 73, 48,
    -53, -56, -31, 53, 4, -15, 14, 30, -36, -67,
    71, -56, 99, -77, -85, -32, 56, 25, -4, 0,
    -1, -70, -35, 19, -37, 77, -17, -22, -35, 65,
    95, 98, -94, -3, -19, -14, -64, 109, 59, -68,
    52, -26, 103, -4, 68, -5, -3, -94, -60, 98,
    85, 105, 62, -93, -51, 13, -97, -12, 10, -30,
    14, -17, -58, -20, 27, -86, 85, 105, -106, -14,
    -21, -12, -28, -16, 30, 35, 66, 30, 41, -4,
    -24, 46, 42, -22, -92, 27, -72, 21, 66, -83,
    -24, 92, 39, 98, -33, -1, -50, -47, 51, 93,
    90, -14, 98, -70, -74, 2, 85, 64, -80, -24,
    72, 52, 27, -32, 70, 65, 68, 35, -40, -70,
    86, 37, 20, 48, -20, -65, 37, -1, -85, 7,
    -31, -73, -64, -14, -80, 40, -91, -59, -86, -53,
    -105, -41, -53, 54, -67, 77, 116, 30, -18, -61,
    -59, -81, 5, 75, -36, -33, 12, -92, -33, -77,
    -60, -45, 66, 33, 20, 73, 62, -18, 4, -15,
    47, 37, 31, -101, -12, 54, 25, 16, -38, 46,
    -2, -49, -59, 5, -79, 65, 11, -16, 106, -4,
    29, 80, 32, 12, 79, -62, 73, 42, -29, 20,
    3, -64, -51, -40, 80, 76, 10, 60, 69, 84,
    21, 68, -26, 4, -45, -75, -35, -74, 18, 54,
    26, -102, 31, 72, 3, -95, -1, 82, -62, -69,
    64, 74, -1, 71, -90, 63, -77, -9, 71, -39,
    -75, 28, 93, -49, -87, 55, 74, -71, -59, 34,
    18, -47, 2, 26, 11, 78, 59, 31, 84, -85,
    22, 13, -50, -21, -42, -88, -6, 76, -67, -21,
    -29, -42, 62, -80, 77, -75, -8, -62, -71, 66,
    -21, 40, -23, -6, -54, 86, -89, 5, 84, -71,
    -14, 8, 95, 7, -76, -61, 10, 67, -108, -86,
    -81, -92, 3, 37, -91, -8, 6, 35, 24, -29,
    -17, -47, -75, 3, 4, 9, 72, 81, 7, -67,
    47, 44, -7, -68, -98, 86, -82, 88, -67, -41,
    15, 87, 4, -57, 51, 30, -78, 80, 83, -27,
    -8, 49, 8, -18, 23, 102, -13, 61, -44, -96,
    3, -5, 21, -84, -84, 2, 9, -89, -49, -77,
    -31, 70, 53, 87, 69, 64, -63, -105, -70, -85,
    80, -54, 63, -17, -75, 15, -24, -20, 28, -120,
    -84, 107, 37, -16, 39, -2, 26, -46, -24, 31,
    22, -25, -9, 66, 52, 75, -61, -33, -24, -46,
    -6, -29, 65, -61, 75, 68, 77, 55, 55, -77,
    83, -96, 2, 85, -3, 8, -62, -85, -12, 25,
    -45, 7, -3, -63, 4, -83, 62, -57, 73, 63,
    66, -69, 56, 0, -104, 83, 83, 43, -69, -40,
    -9, 80, -69, -81, 28, 33, -35, -99, -15, 51,
    88, 12, -60, 30, 52, -57, 21, 62, -15, -96,
    -27, -98, -9, 70, -28, 85, -83, 85, -25, -82,
    97, 5, -7, 53, -16, 7, 46, 85, -62, 9,
    -21, 17, 38, 71, -44, -38, 26, -61, -65, -38,
    -61, -82, 21, 19, 50, 33, 16, 80, 69, -77,
    81, 22, 94, 69, -46, 5, 21, -85, -52, -88,
    21, 2, 62, -77, 58, 55, -36, -112, 10, -41,
    -27, -56, -19, -24, -2, -50, -4, -53, -59, -11,
    -13, -78, 79, -84, 61, 22, -52, -72, -45, 91,
    103, 63, 103, 72, 15, 94, 27, 6, 55, -20,
    -21, 21, 46, 71, 62, 90, 4, -38, 25, 39,
    -40, -63, -60, -44, 92, 44, -18, -73, 45, 16,
    15, -71, 59, -4, -74, 59, -33, -68, -77, -24,
    -51, -72, 20, -6, -76, 6, -98, 83, -77, -59,
    -9, -105, -73, -65, -70, 41, 34, -46, 55, -62,
    65, -31, 52, 14, -35, 13, 35, 55, -5, 41,
    35, 84, -71, -44, -5, 67, -109, 53, 91, 63,
    109, -44, 4, 68, -70, 6, -55, 50, 28, -101,
    87, 82, 5, 107, -90, 1, -1, 2, 25, 26,
    95, -44, 27, 42, -73, -47, -73, -45, -36, 76,
    -48, 22, -60, 81, 4, -60, -26, -53, 42, 85,
    21, 1, -83, -7, 28, 21, -104, -58, -82, 18,
    33, 45, 32, -70, 22, 85, -43, -96, -16, -26,
    76, 56, 81, 74, -10, -49, 8, -21, -39, -80,
    92, -82, -15, 39, -60, -26, -67, 27, 95, 24,
    -5, 97, 91, 86, -45, 41, 4, 25, 75, -29,
    -57, 17, 18, -58, 86, -9, 79, -94, -54, 47,
    -50, -5, -34, 90, -98, -62, -93, -2, 5, -40,
    -67, 27, -80, -89, -8, -91, -34, 1, 26, -7,
    82, -20, 15, -55, -17, 65, 79, -5, -52, -15,
    -76, 35, 58, -36, -43, 94, -60, -56, -58, 74,
    20, -114, 78, 24, 32, 82, 18, -55, -52, 59,
    -49, 51, -68, 73, -28, 70, -58, 36, 55, 21,
    -7, -59, -34, 48, 68, -28, -35, -57, 18, -35,
    21, -67, -44, 80, -51, -77, 3, -76, -30, -82,
    -59, 6, 36, -37, -113, -73, -4, 26, -34, 23,
    30, 83, 53, -3, -63, -28, 61, 32, -60, 68,
    65, -32, 9, 50, 35, -1, -1, 57, 12, -55,
    81, 73, -30, -72, -65, -61, -10, -81, -73, 1,
    6, -11, 17, 30, 61, 2, 20, -65, -81, -65,
    50, 36, 37, 35, -26, -74, 62, -33, -35, -81,
    58, 52, -69, 63, 42, 25, -38, -67, 3, 15,
    -58, 71, 52, 1, -107, -70, 82, 11, -14, -50,
    -48, 77, 51, 15, 56, -48, -32, 30, -72, 63,
    74, 38, -40, 62, -39, -4, 84, -19, 112, -12,
    -49, -21, -81, 51, 40, 10, -97, 7, 27, 65,
    -39, 48, 63, 0, 11, 76, 9, -40, 27, 0,
    -20, 16, 69, 107, -24, 75, 98, 65, 48, -68,
    -44, -29, 98, 27, -62, -80, -97, -85, -77, -70,
    67, -59, 66, -31, -92, -49, -47, -62, -87, -23,
    -86, -31, -40, -68, 7, -67, -31, 99, 103, 25,
    14, 64, 70, -60, 6, -12, -73, 83, 57, -3,
    79, 26, 73, 46, 50, 23, 48, 87, 32, -52,
    49, 82, 91, 65, -29, 82, 0, -71, -16, 69,
    -78, -22, 76, -36, -30, -28, 30, -57, -12, 28,
    20, -7, 50, 5, 92, 58, -48, 1, 87, 14,
    -40, -23, -46, -45, 30, 65, 13, 54, 60, -56,
    -89, -35, 24, -26, -48, -59, -9, 64, -20, 85,
    -51, 94, -57, 72, 19, 80, 88, -26, -10, -16,
    3, -54, -28, -67, 68, 59, 7, -9, -75, -94,
    -66, -67, -74, 69, -54, 51, 59, 3, 41, 57,
    -87, 86, 89, 81, -39, 43, -43, 4, 58, 23,
    34, -34, -25, 100, -74, 7, -8, -23, -103, -63,
    -60, 12, 49, -66, -22, -88, 61, -78, -5, -7,
    -55, 61, 53, 65, 87, -55, 36, 77, -40, -3,
    -1, -102, -12, -30, -81, 59, -86, -43, 50, 15,
    59, 10, -79, -65, -26, -72, -73, -42, 81, 76,
    19, -59, -42, 85, 19, 3, -42, -57, 68, 7,
    11, -47, -70, -48, -74, 74, 0, -11, 84, 60,
    -34, 55, 9, -107, 96, -53, -75, -18, 17, 66,
    -125, -93, -56, -57, 114, -22, 53, -3, 56, -57,
    37, 41, 27, -69, -14, 88, -24, -78, -64, 10,
    39, -40, 55, 40, -87, -15, 102, 71, -8, -59,
    13, 73, 3, -67, 100, 34, -97, -2, -22, 103,
    44, 32, -19, -52, 58, 25, -10, 58, 51, -80,
    -19, -42, 7, 9, 29, 58, 48, 17, -18, -43,
    31, 33, 70, -106, -59, -74, 37, 46, -33, -85,
    10, -95, 39, -80, 14, 6, 55, -44, 67, 3,
    7, -72, 77, -19, -43, -29, -39, 99, 77, 17,
    89, -11, -14, 25, -14, -75, 14, -20, 24, 60,
    67, 34, 1, -20, 105, -98, -55, 14, 46, 57,
    -76, 30, -88, 59, -98, 1, 5, -35, 35, 66,
    20, 22, 98, 97, -59, 100, 94, 11, 30, -42,
    -44, 9, -53, 17, 34, 56, -80, -65, -39, 21,
    -37, -27, -14, 24, 1, -24, 16, -57, -94, 34,
    98, 22, 53, 81, 102, 1, -12, -100, -3, -27,
    12, 108, -20, -64, 72, 5, -72, -6, -27, 26,
    91, -58, -45, 8, 40, 111, -35, -27, 7, -85,
    -12, 54, 75, 52, -9, -40, 69, -30, 8, 79,
    -9, 53, -82, -20, 78, -9, -71, 24, -56, 31,
    65, 1, 63, 73, 49, 47, -81, -75, 85, 32,
    -72, 102, -14, -103, -49, -74, -45, -22, -23, -45,
    12, 106, 102, -67, 23, -47, -17, -42, -51, -33,
    -93, -32, -19, -90, 28, -52, -33, 32, 92, 35,
    -49, 86, 24, 54, -64, 83, -41, 61, 92, 2,
    91, 71, 0, 18, 0, -7, -88, 41, -73, 6,
    -31, 1, -1, -35, -42, -76, -55, 40, 73, -97,
    -35, -14, -45, 6, -11, 19, -61, -68, -10, 58,
    64, 79, -6, 42, -58, 81, 9, -87, -31, 74,
    -63, -101, 80, 8, 12, -27, 82, 51, -89, 55,
    94, -117, 13, -55, 69, 49, 50, -40, 65, 16,
    72, 34, -66, -57, -18, -57, -25, 54, 87, -10,
    -19, -88, 24, 37, 39, -64, 32, -43, -42, 49,
    -68, -56, 66, -41, 95, -53, -64, -15, -44, 21,
    57, -83, -80, -38, 4, 83, 70, -41, 53, 29,
    -74, 65, 89, -26, 72, 101, 10, -10, 81, 80,
    99, -51, 8, 29, -48, 16, -65, -50, 93, -83,
    -97, 86, 48, 16, 63, -17, -43, -26, -5, -97,
    -85, -29, 9, 51, -55, -92, -82, -2, -64, -46,
    -51, 27, -18, -64, 38, -26, 39, -23, 34, 10,
    -41, 87, 39, 5, 45, 95, 82, 76, -53, -33,
    17, -14, -20, 59, -34, -43, 16, -17, -49, -103,
    58, -44, -21, 58, -84, -15, -69, -94, -16, 29,
    56, 101, 23, -25, -64, -31, -93, -109, -99, 60,
    25, 62, 75, 61, 27, 50, 16, -106, -66, 69,
    64, -23, -52, -64, -70, -29, 7, -3, 20, 8,
    24, 74, 41, -4, 44, 4, 38, -24, -102, -44,
    74, -16, -30, -30, 57, 67, -49, -26, 75, 27,
    72, -69, 70, -43, -59, -48, -45, 32, 43, -80,
    32, -70, 57, -5, -21, -74, 67, 75, -17, -25,
    61, 56, -46, 33, -42, -98, -12, -85, -39, -8,
    -66, 27, -53, -95, -10, 20, -21, -58, 28, -72,
    -53, 80, -44, 37, -4, -14, -47, 95, 11, 15,
    -90, 78, -12, 22, 61, 15, 41, -54, 14, 27,
    52, -17, 85, 99, -43, -2, 7, 60, 7, 48,
    -38, 37, 75, 11, 90, 86, -86, -93, -85, -32,
    51, -30, -7, -23, 24, 18, -75, -52, -38, 68,
    -86, -85, 46, 36, 4, -77, -53, 65, 97, 31,
    95, 62, -5, -46, -52, -37, -84, 86, -18, -95,
    -56, -56, -85, -35, -63, -42, -64, -11, -83, 35,
    -3, -23, 25, 25, -19, 2, 29, -95, 25, 25,
    -3, -40, -47, 24, -63, 33, -90, 10, -15, -54,
    -57, -12, -39, -26, -30, 61, -15, 75, -37, -76,
    -10, 56, -58, 93, 4, 57, -30, -81, -50, 31,
    -59, 101, 94, -9, 84, 27, 7, -92, -95, -83,
    -12, 79, 42, -22, 53, 46, -46, 44, 18, 64,
    -2, -33, -58, 66, 34, 63, 56, 28, -90, 14,
    37, -60, 37, -62, -96, 88, 64, 62, 34, -86,
    23, 91, -57, -3, 27, -78, 19, 49, 6, -68,
    38, -79, 12, -4, 15, -66, -43, -55, -59, -34,
    18, 114, -17, -74, 40, 86, -76, 108, 88, 44,
    46, -48, -78, 83, 49, -70, -88, 4, 37, 82,
    6, 55, 56, 50, -38, -59, 106, 22, -89, -29,
    6, 36, -60, 88, -61, 50, -41, -63, 44, 1,
    -53, -17, -16, 91, -72, -34, -34, -61, -86, 9,
    -23, 49, 12, 42, -85, 66, -48, -4, 25, -14,
    -18, 62, 65, -54, 61, 48, 60, 39, 24, 100,
    66, 2, -55, -2, -58, 75, -19, 3, 50, 53,
    -86, -46, 8, -67, 56, 36, -45, -81, 17, -35,
    81, 46, 59, 35, 36, -73, 85, -24, 55, 74,
    12, -70, -14, -46, -73, 57, -45, 51, -57, 67,
    -20, -3, 62, -92, 105, -31, 47, -81, -40, -12,
    -25, -45, 40, 1, -41, -8, 83, -89, -37, -11,
    32, 87, -46, -18, -65, -85, 32, -29, 73, 6,
    -35, -19, -7, 79, 32, 8, -44, 50, -79, 57,
    -26, 79, -69, 105, 79, -79, -24, 79, 32, 98,
    -11, -55, 49, -37, 82, 43, 83, 45, -43, 62,
    -107, 90, -14, -47, 24, 44, -2, 90, 12, -69,
    46, 3, 40, -60, 69, 25, -42, -89, 1, 32,
    -62, -31, -30, -92, -53, -61, 1, 103, 36, 61,
    78, 25, 20, -52, 67, 42, 28, -54, 34, 29,
    62, -4, 76, -34, 67, 14, -67, 37, -69, -69,
    82, -46, -60, -31, 78, 99, -26, -63, -72, -61,
    -84, -45, 17, -37, -82, -26, 95, 36, 45, -68,
    -51, -61, -45, -6, -34, 36, 53, -31, -75, -34,
    59, -64, -50, 42, -26, 96, -52, 72, 46, -89,
    76, -72, 69, -46, -40, 45, -30, -68, 80, 29,
    7, 75, 28, 92, 4, -81, 48, -82, 38, 6,
    -4, -47, -54, -86, 31, -14, -46, 93, 62, 7,
    38, 6, 85, -79, -69, 70, 59, -13, -11, 44,
    69, -47, 44, 66, 2, -59, 19, -11, 23, -72,
    39, 65, -49, 80, 43, -24, -53, 41, -64, 58,
    -81, -64, -10, 45, -91, 16, -4, -41, -47, 74,
    -62, -54, 1, -73, 12, 25, 39, 32, 95, -4,
    88, -40, 11, -55, -95, 12, -5, -53, -24, -79,
    15, 63, -55, 76, -76, -84, 89, 25, -71, -46,
    1, -68, 54, -34, 87, 77, 73, -77, 63, -61,
    -46, 72, -89, -33, 40, -33, 65, 58, -66, 23,
    -119, 27, -40, 13, -28, 64, 4, -84, -82, -39,
    -10, -31, -26, -47, 16, 25, -48, -43, -39, 52,
    -29, -22, 57, 10, 27, -72, -47, 33, 19, 22,
    38, 27, -62, 28, 46, 47, 28, 112, 9, 68,
    -53, 10, -29, -2, -60, -52, 88, 56, 54, 30,
    59, -36, 45, -98, -89, -69, 94, 50, -35, 16,
    65, -50, -68, -77, -32, 78, 11, -7, -43, -11,
    -64, 53, -78, -68, -36, 74, -46, 83, -16, -40,
    44, 91, -24, 30, -43, -41, 83, 99, -82, -78,
    -94, -6, -6, 52, 32, -76, -21, -79, -16, 22,
    -82, 118, 93, -65, -29, 96, 43, -64, -28, -64,
    17, -53, 103, 15, -48, 61, -37, -94, -101, -47,
    38, 47, -5, -21, -11, -57, 81, -96, -40, 24,
    -11, -14, -79, -39, -46, 80, -12, -45, -49, -55,
    -30, -54, -69, -23, 73, -96, -12, 76, 38, 16,
    13, -54, -82, -66, -73, 63, 12, -47, -77, 0,
    37, 25, 39, -13, 8, 44, 25, -23, 82, 67,
    5, 40, 69, -22, 29, -29, -22, 3, -43, 113,
    -78, -28, -36, 48, -15, -14, 63, -78, 70, 81,
    4, -11, 51, -23, 14, 49, -54, -1, 73, -9,
    -75, -4, -31, -78, 2, -15, 46, -4, -85, 106,
    2, -32, 40, 52, 86, 57, -29, 68, 43, -52,
    31, -40, 32, -51, 57, -51, 13, -8, 28, 13,
    31, -29, 66, 57, 21, -43, -5, -92, -7, 108,
    37, 9, -63, 4, 108, 33, -3, 24, 2, -15,
    -67, -41, -58, -46, 104, -86, 7, 7, -40, 16,
    12, -69, 11, -34, -48, -89, -24, -61, 22, -99,
    49, 82, -8, -58, -81, 36, 26, 83, -55, 83,
    -50, -56, 13, -41, 59, -67, 57, -74, 34, 84,
    -51, -85, 18, -62, -47, -54, -61, 93, -87, 73,
    -62, 90, -28, -14, -47, 4, -33, -91, 37, 36,
    -60, 98, -18, 53, -19, -91, -58, -81, 64, 81,
    -25, -76, 67, 28, 81, -9, 38, -5, 85, -12,
    22, -75, -9, 18, 100, 25, 76, 18, -26, 30,
    -21, 35, -8, -59, 66, -19, -62, -12, -71, 36,
    18, -109, 70, -46, -15, -37, 66, -64, -77, -76,
    37, -44, -1, 59, 8, 74, 19, -104, -81, -49,
    -78, -19, -23, -101, 88, -8, -18, 25, -27, 19,
    -67, 37, 61, 8, 100, 3, -30, 67, 6, 49,
    -19, 87, -40, -21, -27, -72, 50, -51, 12, 117,
    43, 9, 71, -36, 112, 64, -91, 50, 25, 32,
    54, 67, -53, 26, -5, -100, -12, 19, -27, 66,
    -105, -69, -61, -15, 60, 22, 67, 77, -89, 31,
    -76, -85, 71, -77, -73, -95, 65, -70, 38, -48,
    4, 71, -90, -25, -55, 76, -21, -57, -17, 60,
    -79, 71, 9, -81, 69, -1, 47, -7, -55, -39,
    15, 75, 35, -54, 111, -13, -60, 44, 56, -3,
    -42, -56, 49, 80, -14, 13, 50, 19, -75, 80,
    -34, -113, -59, -22, 55, -89, 10, -68, 61, -57,
    -57, -19, -34, -12, -91, -39, -30, 33, 4, 65,
    -42, -17, 61, -59, -109, -88, -79, 1, -97, -20,
    -80, -15, -32, -65, 97, 29, -26, 88, 94, 3,
    11, 80, 28, 19, -16, 42, 62, 82, -68, -12,
    23, 39, 62, 58, -106, 49, 31, 27, -76, 62,
    35, -94, 69, 65, -95, -31, -100, -37, -27, -107,
    -62, -34, 67, 38, 79, 10, -65, 46, -38, -7,
    95, -53, -4, -78, -50, -4, 36, 92, 84, 89,
    15, 70, -50, -44, -44, -52, -34, -28, -69, 16,
    43, -32, -66, 8, -20, 35, 70, -44, -7, -56,
    -5, -65, 101, -85, 33, -3, -12, -65, 25, 6,
    -18, 96, -69, -14, -85, 73, -34, 14, -81, 42,
    0, 40, 114, 39, 87, 53, 4, -5, -74, -87,
    43, 22, 21, 75, -84, 63, 22, -92, -2, 10,
    -80, 43, -42, -46, -16, 54, 37, -95, -10, -100,
    58, -6, -10, -69, 41, -46, 0, -84, 58, 2,
    16, 67, 3, 74, -71, -2, -36, 40, -75, -45,
    19, 76, -61, -48, -72, -18, -7, 71, 19, -50,
    -9, -99, -15, -79, 79, 96, -56, 23, -23, -36,
    88, 65, 53, -90, 18, 53, 16, -69, 52, -35,
    21, -36, 14, -48, 49, -24, -41, 21, 22, 40,
    44, -48, -7, 47, -107, 58, 81, 18, 70, 74,
    -11, -11, -23, 71, -64, 11, -25, -69, 33, -44,
    27, 43, -18, -10, -22, -6, 13, 59, -89, 85,
    100, -57, 73, 34, -82, 17, -20, 83, -20, -16,
    69, -73, -112, 67, 10, 29, 5, -54, 6, 28,
    -5, 38, -86, 27, 76, -12, 113, -3, -30, 17,
    68, -6, -87, 52, 21, -71, 12, 21, 32, -8,
    89, -89, -15, 18, -69, 5, -87, -6, -4, -22,
    -77, 49, -57, 74, 78, 88, 71, 82, 9, 36,
    -7, -10, -67, -5, -1, -11, -110, 5, 5, -49,
    -51, -40, 61, 16, -2, -21, 2, -46, 85, -51,
    37, -104, -98, -110, -63, -69, -58, -8, 19, -38,
    39, -66, -81, -92, -78, 51, 75, 68, 13, 74,
    -18, 62, -38, 23, -12, 65, -38, 39, -30, -54,
    -53, -76, 60, 33, -74, -43, 79, 72, 59, 55,
    -36, 82, -95, -34, 29, 40, -36, -46, 36, 50,
    46, 8, 24, -78, -80, -71, 61, -12, 45, 49,
    -58, 4, 66, 28, 75, 37, -76, -84, -45, -102,
    38, 58, 57, 78, -44, 69, -64, -28, -6, 72,
    -59, -66, -97, -3, 51, 97, 77, 100, 71, -86,
    -107, 39, -60, 43, 68, 13, -22, -16, -62, 94,
    -27, 73, 37, 9, 76, -21, 21, 12, -86, -76,
    81, -8, -27, -52, 8, -70, -48, 66, 74, 81,
    -28, -73, 49, -17, -43, 41, -7, 101, 33, 56,
    29, 19, -78, -2, 42, -40, 91, 22, 14, 36,
    -24, 55, 66, 52, -37, -4, 44, 8, -49, -13,
    33, -58, 95, 44, 58, 12, 38, -20, -25, -16,
    -79, -95, -20, 54, 40, 85, -33, 15, 10, 37,
    86, -66, -18, 7, -23, 49, -107, -59, -68, 18,
    -57, 13, -12, 32, 12, 5, 76, 22, 40, -57,
    -23, -57, -59, -47, -26, 16, -27, -87, -88, 3,
    -7, -74, 21, 37, 85, -6, 71, -27, 88, -79,
    -27, -103, -54, 20, 32, 55, 73, -32, -46, 16,
    -90, -67, -39, -107, -36, -1, -34, -49, -16, -64,
    -32, -63, -21, -10, -61, -70, -68, -89, 2, -25,
    17, -25, 26, 53, 7, 74, 71, 3, 41, -24,
    -80, -11, 56, 65, 49, 20, -46, 10, 10, 35,
    53, -21, 27, -105, -84, -24, 66, -28, -65, 63,
    -12, 31, 63, 109, 27, -15, 71, -9, 52, 86,
    -24, -48, -23, 85, -81, 34, 26, 47, -64, 47,
    12, -55, -74, 27, 81, 85, 36, 76, 47, 5,
    -26, 39, 91, -69, -41, -3, -74, 62, 26, -6,
    -21, 105, -30, -72, -80, -54, -75, 75, 39, -109,
    101, -79, 26, -47, 48, -53, 3, 38, -14, -24,
    52, 8, -64, -62, -21, 58, 39, 94, -6, -46,
    -83, -36, -17, -69, 44, -49, 50, 29, 34, -25,
    -63, 50, -56, 78, -24, 50, -33, -105, 101, -14,
    61, -67, 47, 42, 20, -72, -69, -9, -69, -48,
    -2, 9, 59, -33, -95, 96, 33, 36, -3, -63,
    9, 102, -62, 78, -74, 22, 55, 13, 15, 37,
    -20, 24, 90, 34, -62, -81, 46, -107, 83, -78,
    -104, 82, -6, -62, 79, -60, 27, -34, 6, 65,
    75, -81, 1, 31, 10, -99, 72, 10, -96, 49,
    -4, -91, 20, -88, -50, -49, -7, 15, 10, 25,
    52, 49, -59, 79, -44, -97, -60, -12, 4, 91,
    45, 49, 8, 24, -34, -89, 38, -93, 8, -2,
    97, -80, -21, 73, -85, 23, -87, -26, -19, 22,
    -51, 89, 29, -40, -65, -33, 57, -81, -35, -84,
    -81, 63, -40, 48, 52, 52, -68, -6, 88, 5,
    -34, 70, -6, -68, -9, -51, 31, 8, 87, 4,
    15, 46, -53, 95, 61, -42, -41, 24, 14, -25,
    -51, 50, 55, 69, -94, -12, -55, -83, 83, 58,
    -72, -59, 66, 87, 31, -10, -26, -18, -74, 52,
    18, -20, 50, 81, 29, 10, -7, 58, -15, -93,
    85, -17, -19, 32, 74, 29, -61, 85, 51, 67,
    16, 69, 21, -40, 41, 1, 7, 93, -55, -57,
    94, 16, 75, 35, -49, 2, -32, 78, 18, -26,
    -61, 51, -19, 25, 81, 32, -25, 81, 76, -26,
    24, -80, 85, -78, 50, -69, 80, -24, -62, -47,
    -87, -51, -70, -41, -31, 59, -56, -47, 9, 16,
    -75, -86, 99, -4, 29, -86, -41, -75, 18, 29,
    62, 21, -35, 49, 62, -49, -76, -28, 91, 60,
    -38, -18, 49, -15, -16, 65, -6, -14, 37, -1,
    -100, -82, -74, -58, -13, 44, 44, 48, 28, -25,
    -36, -7, 60, -69, -95, -35, 77, 53, -56, 21,
    -21, 59, -14, -51, 78, -46, 37, 5, -42, -52,
    75, 66, -34, 83, 55, -12, -13, -94, -75, 0,
    -79, -94, 60, -40, 89, -75, -81, -20, -6, -71,
    84, -60, -11, 23, 10, -71, 8, -71, 19, -82,
    -51, -46, 98, 1, -36, 1, -55, 7, -25, -4,
    -71, 42, 4, 40, 62, 38, -84, -61, -98, -14,
    29, 39, -75, 11, 50, 53, 69, -24, -91, 1,
    1, 38, -39, -79, -43, 54, 86, -69, 10, 29,
    48, 87, 43, -49, 64, 20, 72, -96, -35, -102,
    51, 45, 82, 3, 68, 64, 122, -42, 56, 32,
    72, 32, -63, 87, 15, -50, -8, -78, 31, 68,
    54, -2, -88, -53, -61, -65, 69, -51, 22, -37,
    -8, -89, 42, 64, -60, -32, 4, 59, 41, -45,
    56, 17, -41, -54, 37, 68, 77, 34, 10, -99,
    -1, -32, -7, 19, -21, 4, 82, 27, 55, 63,
    -24, -10, -93, -21, -79, 51, -37, 57, -49, 3,
    23, 0, -70, -60, 77, 29, -46, 18, 40, 3,
    -37, 15, -75, 47, -75, -89, -8, -68, -70, -59,
    40, -11, 79, -50, 86, 20, -2, 77, 49, -59,
    60, 89, 0, 62, 34, 82, -48, -67, -4, -16,
    -98, -81, 66, -70, 36, 90, 0, -42, -14, 74,
    60, -90, -64, 34, -73, -5, -37, 68, -74, -42,
    57, 45, -111, -94, 35, -36, 59, 33, 49, -60,
    8, -69, -100, -47, 62, 62, 73, 70, -63, 59,
    75, -28, -87, -44, 69, -57, -50, -63, -67, -45,
    17, 77, 5, -85, 67, 16, -23, -66, 37, 45,
    -64, -69, 77, 33, -25, -3, -58, -7, 3, 13,
    33, 32, 41, -18, 93, 27, 6, 0, -100, -38,
    -30, 58, 107, -28, 90, 27, -45, -52, -6, -4,
    -37, 37, 76, 52, 69, -6, -50, 49, 58, -84,
    -55, 68, 31, 82, 42, 82, -1, 25, -71, 4,
    34, -33, 7, -55, 78, -87, -10, 72, 5, -43,
    -26, -57, -67, 64, 18, 38, -90, 27, -49, -47,
    -44, 74, -56, -43, -68, 44, 83, 34, 72, 4,
    -1, 95, 85, 84, 96, 66, 70, -51, -45, 8,
    -6, -54, 46, 80, -78, -87, 59, -85, -96, 19,
    -91, 33, -56, 4, -86, 103, 23, 104, 16, 48,
    21, -68, -20, -2, 72, -3, 85, 89, 31, -101,
    -46, -103, -127, -33, 73, 75, 5, -65, -90, -80,
    47, 5, -67, 37, -74, 15, -21, 96, -84, 93,
    -24, -82, -14, -23, -16, 26, 69, 13, 48, -78,
    -35, -36, 42, 107, -72, -2, 1, -34, -80, 68,
    -41, -62, -7, -78, 98, -2, -21, 19, 46, -20,
    49, -70, 95, 75, -22, 43, 15, -25, 66, 39,
    -79, 19, -23, -67, 77, 26, -68, 59, -49, 83,
    -4, -21, -60, -31, 91, 40, -39, 1, -33, -86,
    14, -54, 38, -15, 22, -40, 22, 78, -83, 90,
    14, -82, -101, -10, -49, 110, -36, 79, 64, -61,
    -17, 64, -55, -66, -69, -21, 53, -23, 9, 0,
    -1, 32, 92, -61, 30, -12, 6, -76, 93, 40,
    52, -40, 41, 82, 20, -86, 54, 86, 31, 64,
    86, -53, -2, 73, -38, -67, -93, 72, 10, 20,
    -75, -14, -61, 61, -77, -44, -72, -48, -5, 26,
    77, 92, -29, 39, -43, -82, -23, 72, 30, -23,
    -83, -57, 11, 66, -34, -47, 49, 35, 35, -34,
    52, 30, -66, 6, 6, 93, -59, 78, 31, 12,
    26, -74, -70, -104, 54, 82, -45, 26, 31, -99,
    32, 18, -56, -26, 40, 75, 17, 89, 72, -34,
    -27, 82, 3, 70, -2, -17, 37, -69, 0, 15,
    -51, 85, 3, -52, 28, -45, -46, -4, 39, 85,
    20, 91, 101, -9, 7, -67, -39, 66, 13, -31,
    -20, 47, 71, -52, 51, -51, 61, -1, -52, 40,
    -86, 43, 4, -57, -82, -48, 11, 39, -3, -49,
    -24, 12, 62, 8, -44, -25, -83, 26, -33, 35,
    -13, 84, -47, -66, 12, 29, -66, -41, 69, 75,
    68, 65, 66, 83, 28, -71, -35, 47, 11, 87,
    85, 79, -59, -43, 77, 21, 87, 55, -94, 48,
    18, 2, 95, -51, 97, 69, 42, 100, 17, -42,
    -73, 85, -24, 1, -12, 58, 10, 19, -25, 96,
    96, 39, -10, 66, 96, -32, -90, -70, -30, -56,
    -38, 4, -79, 55, 77, 81, 45, 46, -84, -5,
    82, 38, 55, 99, 12, -26, 101, -71, -4, 30,
    14, -62, -41, 65, -5, 46, 37, 35, 54, 28,
    -14, 7, -34, 93, 97, 85, -29, 52, -58, -76,
    83, 45, -71, -1, 100, -10, 27, 37, 41, 22,
    -1, -21, 42, -62, 48, -97, -21, 46, -70, -38,
    -39, -28, -9, -57, -61, -32, -31, 38, 32, 11,
    7, 9, 47, 18, 41, 40, 20, 29, 70, -15,
    0, -22, 51, 51, 21, -55, -73, 15, 81, -37,
    51, -8, 46, 21, 27, 44, 29, 16, 92, -87,
    3, -75, -63, -85, 3, 36, -20, -38, -36, 14,
    -51, 12, 64, 47, 29, -26, -85, -42, -11, -38,
    -23, -61, 100, -33, 73, -78, 42, -69, -29, -44,
    -86, -91, -78, -8, -26, -95, -3, 24, 14, 95,
    -12, 72, -9, -20, 1, -42, -40, 5, -63, 27,
    -74, -17, -18, -38, 69, -65, 48, -84, 57, 103,
    -22, 2, 18, 77, 13, -45, 75, 48, 3, -14,
    67, -45, -62, -61, 25, -51, 58, 55, -57, -43,
    77, -72, 45, 0, 78, 40, -77, -63, 47, -39,
    2, 13, -70, -34, 59, -9, -63, 66, 75, 3,
    -53, 38, 15, -64, -67, -51, 88, 18, 7, 59,
    -51, -21, 2, 62, -20, 25, -88, -83, 16, 7,
    69, 14, 76, -49, -50, -15, -61, 11, -88, 15,
    -17, 44, 87, 9, 11, -60, -47, -28, -81, 64,
    97, 67, 70, -80, -20, -39, -52, -79, -87, 1,
    -47, -56, 96, -114, -30, 57, -57, 60, -77, -8,
    28, -32, -62, 25, -12, 78, -24, 73, -46, -25,
    12, 45, 78, 38, -36, -11, 38, 66, 59, 40,
    -19, 41, 34, -68, 79, -8, 98, 55, 13, -92,
    -106, -61, 40, 29, 11, -99, 48, -39, 41, -57,
    -16, 53, 18, -90, 99, -82, -82, -76, -98, 38,
    57, 71, 23, -30, 29, 17, -87, 8, 9, 89,
    47, -25, -2, 75, 95, -64, 90, -25, -36, 46,
    88, -47, 8, -51, 27, 53, -63, -51, 21, 25,
    -22, -45, -11, 31, 90, 37, 1, 13, 30, 13,
    -74, -38, 30, 7, -62, -68, 39, -37, 54, 24,
    6, -42, -70, 22, -53, -51, -76, 12, -33, -27,
    -13, 37, 57, 50, -22, 91, -47, 22, 44, -86,
    44, 46, 56, 51, 56, -74, 59, -23, 27, -98,
    -5, -46, -46, -81, -5, -50, -69, -101, 65, 70,
    -14, 59, 2, -72, -5, 34, -15, -8, -34, 71,
    -68, -8, -88, 40, -20, -48, -82, -18, 8, 73,
    -21, -47, -99, -11, 66, -81, -34, 52, 58, -72,
    -78, 93, -41, 17, -82, 38, -15, -11, -64, 26,
    -18, -26, -57, 77, 13, 3, 29, 81, -64, 73,
    56, 59, 6, -51, -8, 99, -76, -70, -44, 14,
    -68, 2, 27, -20, -96, -24, 1, 65, -78, 22,
    -7, 46, -61, 39, -14, 37, -96, -13, -68, 38,
    -85, 43, -96, 30, -57, -68, 11, -88, 1, 66,
    -8, -61, 83, -1, -2, 35, -66, -41, 36, 3,
    -41, -62, 60, -61, -4, 55, -5, -99, -105, -6,
    33, 91, 74, 104, 59, 59, 107, -20, 67, -30,
    20, 47, -81, 35, -4, -16, -50, -43, 2, -25,
    23, -20, 17, 90, -80, -12, 63, 39, 18, 39,
    -93, -78, -89, 71, 58, 77, 94, -30, 83, 12,
    22, -33, -40, -39, 36, 51, -69, -58, -36, -93,
    -31, 4, -22, -15, 33, -55, -50, -26, 21, 17,
    -92, -24, -84, -80, -2, -39, 63, -53, -2, 25,
    43, 12, 1, -21, -43, 82, 68, -37, 37, 25,
    -71, -44, 11, -58, -80, -9, -99, -78, 8, -27,
    53, 77, 64, -24, 13, -32, 33, -96, 81, 67,
    -3, -21, 100, 60, 94, -60, -50, -89, -26, -3,
    87, -61, -72, 4, -4, 31, -8, -59, -82, 99,
    -24, -30, 44, -57, -101, -101, -5, 33, 41, -63,
    7, -19, 36, -58, 51, -21, 38, -71, -48, -66,
    -60, -57, 20, 78, 48, -40, -5, -16, -49, -38,
    14, -56, -62, 16, 84, -3, 78, -74, 58, -8,
    77, 34, 44, -56, -20, 9, 3, 76, -15, -13,
    -60, 28, 88, 31, -59, 36, 11, 46, -24, 77,
    89, -47, 96, -21, -97, 84, -38, 9, 71, -62,
    79, 25, 12, 52, -55, -41, -71, 95, -25, 57,
    15, -17, 98, 48, 52, -27, 32, -115, -10, -13,
    -91, -31, 12, 61, -7, -47, -47, -67, -26, -47,
    -75, 9, -71, -1, 53, -74, 66, -111, -79, 91,
    -29, 71, 80, 27, -53, 26, 20, 13, 16, 78,
    1, 20, -15, -41, 83, 2, 38, -55, 10, -94,
    -9, 22, -13, 37, 64, 62, -82, -11, 47, 76,
    -67, 6, 17, -8, 52, 51, -74, 19, -56, 30,
    -10, 18, -13, 70, -88, 36, 108, -20, 37, -39,
    -51, -46, 44, 60, -19, -15, -81, 36, 36, -6,
    -58, 34, -70, 61, -81, 43, -64, 14, 94, 60,
    -69, -32, 18, -48, -30, 67, -75, -80, -90, -1,
    -29, 28, -41, -58, -53, 48, 71, -74, 41, 62,
    -66, -59, 83, -23, 56, 9, -80, 68, 9, -34,
    15, -26, -44, -32, -82, -94, -19, -73, 29, 60,
    -27, -87, -88, 56, -2, -91, -27, 24, -11, 27,
    82, -35, -23, -100, 99, -21, -39, 2, -26, 4,
    71, 9, 21, -43, 63, 95, -84, -68, 97, 74,
    19, 76, 9, 24, 43, 83, -67, 42, 43, -49,
    -45, 23, -49, 50, 64, 47, -64, 96, 54, -97,
    -101, 18, 31, 90, 53, 63, -37, 4, -77, -5,
    12, 51, 26, 11, -1, -80, -33, -14, 20, 18,
    -39, -35, -17, 75, 60, -80, -38, 36, -28, -28,
    -68, -11, 30, 79, -30, -21, 17, 36, -5, -97,
    77, -17, -25, -48, -97, -32, -96, 34, -48, -78,
    -47, 56, -39, -67, -36, 94, 50, 27, -25, -46,
    5, 45, -81, 65, -96, -81, -89, 33, 0, 0,
    -76, -58, 27, 66, -81, 6, -8, -31, 32, -69,
    60, -18, 61, -14, 51, -65, -79, 84, -30, -8,
    83, 94, 30, -97, -50, 67, 40, 47, -31, -86,
    -20, 35, 75, -56, -60, 76, 81, 92, 76, 22,
    -5, -73, -31, -89, 58, 67, 32, -22, -81, 64,
    20, 23, -15, -73, 10, 2, 82, 64, 53, 66,
    -61, 67, -2, -95, 63, -47, 67, 72, -3, -33,
    20, 69, 52, 79, 0, -54, 46, 33, 20, 93,
    -18, 111, -53, -65, 71, 62, -53, 27, -9, 31,
    -26, -94, 43, -95, -57, -84, 45, 47, -62, 117,
    -79, 76, 9, -46, 82, 62, 83, -85, -40, -41,
    44, 1, -61, -15, 77, 98, 8, -94, -29, 64,
    -1, 54, 59, -42, 60, -12, -22, -57, 29, 45,
    41, 83, -81, -15, 1, 42, 5, 45, 35, 42,
    -72, -50, -64, -50, -37, 38, -45, 75, 84, 78,
    49, 78, 55, -52, 99, 54, 58, -69, -4, 111,
    -13, -6, -77, 47, 61, -50, 68, -84, 58, 0,
    -51, 22, -83, 92, 0, -64, 21, 48, 69, 73,
    -35, 2, 65, 13, 84, 4, -101, 24, -14, 7,
    22, 49, -45, -60, 109, 10, 57, 34, 5, -76,
    63, 81, -23, -51, 43, -115, 38, 84, -16, 23,
    27, -9, -21, 27, -16, -12, -1, 53, 74, 12,
    0, -58, 36, 20, -60, 36, 14, -68, -19, -54,
    -8, 76, -60, -11, 90, 72, 69, -45, -15, -23,
    58, -24, -68, -35, -1, 11, -17, -5, -93, -25,
    52, 30, 112, 70, 62, -67, 76, 42, -61, -57,
    -70, -61, 43, -65, 84, 3, -1, 23, 26, -16,
    -83, -86, 86, 103, -18, 69, 60, -64, -9, -58,
    48, 52, 66, 2, 29, -64, -66, -18, 20, -2,
    -28, -48, -25, -41, -19, 95, 4, -1, -44, -37,
    -108, -51, -29, -18, -54, -19, 70, -80, 42, -71,
    1, -18, -96, -60, -52, -74, 32, -70, 86, 13,
    -82, -40, 79, -29, 50, 66, -41, 81, -23, -80,
    51, -75, -76, -95, 37, -15, 70, -52, -25, 33,
    -10, 5, -54, 63, 55, -21, -12, 84, -53, 67,
    52, -26, 58, 15, 21, -55, -36, -30, 11, -104,
    -8, 43, 37, -58, -24, 49, 38, 103, -31, 63,
    -26, 30, 3, -92, 44, 25, -96, -2, 6, 84,
    79, -22, -27, -28, -65, 31, 78, 52, -109, -96,
    -97, -41, -44, -97, -94, -89, -22, 8, 73, -63,
    65, -58, 92, -75, -89, -8, 61, -75, -14, -87,
    60, -44, -51, -58, 31, 86, 5, 48, 94, -1,
    -1, 85, -41, -74, 16, 46, 17, 61, 72, 17,
    41, -89, 15, 38, 50, -84, 64, 6, -5, 7,
    -1, -52, 74, 31, -72, -65, 28, 69, 24, 100,
    -15, -36, 52, 6, 26, -13, 71, 30, 38, -1,
    -25, -67, -28, -82, -52, -19, 56, -97, 46, -61,
    -87, -68, -53, 91, 76, 100, -74, -85, -3, 97,
    67, -91, -24, 1, 105, -74, 67, 53, -52, -67,
    -55, 31, -112, 76, 82, -106, -15, 60, -35, 55,
    -17, -44, 52, 15, -27, 24, -38, -21, -66, -69,
    -54, -18, -79, -14, -33, -13, -52, -48, 101, 32,
    88, -15, 52, -8, -1, -77, 34, 66, -9, -76,
    -60, 53, -33, 46, 13, 93, -15, 2, -58, -85,
    75, -47, 15, -107, -28, -11, 38, 46, 34, -28,
    58, 16, 36, -16, 10, 75, 63, -30, -91, 43,
    9, 65, -74, 18, 94, 4, -38, -24, 17, 32,
    -92, 74, -43, 5, 70, -79, 74, 2, -25, -40,
    63, 80, -33, 17, 41, -97, 94, -92, 22, 67,
    -6, -70, -86, 72, -10, -49, -39, -10, 83, -100,
    6, -104, -90, -50, 68, -44, -10, 10, -2, 56,
    -71, 29, 65, -94, 74, -31, 49, -41, 25, -66,
    -44, -54, -83, 14, 93, -67, 93, 21, -103, -12,
    49, -79, 14, 101, -11, 43, -35, -36, -53, 108,
    -82, -40, -97, 27, -30, 70, 28, 34, 1, 71,
    -75, -36, 78, 45, -44, -24, 47, 15, 88, -16,
    -95, 41, -8, -83, -13, -101, 44, 61, 13, 79,
    -73, -21, -1, -17, 83, 58, -4, -83, 22, 83,
    9, -24, 26, -101, 82, 2, 94, 88, 74, -18,
    -60, 1, 70, -17, 63, -28, 29, -49, -20, 83,
    -86, -21, -15, -91, -76, -25, -13, 40, -18, 79,
    40, 87, -25, -1, -69, 36, 27, 12, -39, 93,
    -88, 64, 72, 36, 73, -79, 67, 84, -66, 77,
    -59, -75, 100, 20, 57, 14, 9, 27, 37, -50,
    49, 14, 22, -81, -58, -51, -81, 58, 14, -62,
    -74, -34, 70, -48, 92, 42, -55, -77, 41, 70,
    -23, -86, 26, -26, -41, -16, 76, -86, 20, 10,
    -86, 84, -14, 86, -48, 4, -36, 7, -103, 31,
    -64, 61, -37, 14, -84, -71, 41, 87, 65, -75,
    -52, 75, 57, 52, 91, -47, -30, 12, -65, 0,
    75, 1, -36, -37, -1, -6, -86, 78, -83, -39,
    -86, -63, 19, -51, -38, -87, -16, 78, 40, 79,
    -71, -42, 38, -39, 77, -65, -90, -77, -43, 45,
    -53, -50, -5, 58, -94, -34, -31, -42, -15, 9,
    -95, 74, 18, -17, -5, 2, 91, 24, 16, 20,
    -80, -81, -29, -80, 38, -64, -7, 42, -52, -27,
    -93, -20, 86, 31, 58, -67, -104, -54, -48, 65,
    -67, 59, -77, 13, 1, 50, 52, -98, 82, 22,
    109, 39, -77, 14, -24, 52, -30, -12, -81, -42,
    -35, 38, -77, 12, 4, 10, 83, -85, 87, -99,
    -18, -58, -62, 29, -60, -19, 57, 19, 42, -44,
    27, -35, 22, -74, -86, 49, 38, 70, -66, -25,
    -53, -67, 4, -14, 48, 81, 62, -45, 22, -55,
    36, -87, -13, 17, 5, 58, -46, -58, 76, -28,
    -9, -64, 48, 45, 23, 12, -56, 75, 67, 29,
    45, 37, 61, -7, -114, 17, -76, 87, -43, -66,
    42, 23, 93, 105, -10, 77, 9, -43, -1, 4,
    8, -30, -55, 49, 16, 49, -50, 10, 77, -46,
    -20, 43, -68, 12, -40, -30, -107, 20, -17, -91,
    -5, 4, 12, -57, -24, 77, -81, -63, 71, -56,
    -30, -62, 10, 16, -22, 47, 23, -46, 30, -99,
    -68, 45, 18, -69, -62, 72, -81, -79, 58, -91,
    -37, 57, -75, 11, 50, 15, -62, -61, -83, 34,
    17, 2, -77, -69, -32, 41, 28, 57, -4, -107,
    46, -53, -11, -29, -60, -45, -49, -90, -62, -19,
    36, 112, 80, 65, 4, 16, -47, -76, 47, 18,
    70, 49, -48, -70, 71, -81, -43, -42, 8, 50,
    -17, 19, -7, -59, 104, 41, -4, -50, -37, -16,
    85, -13, 21, 64, 3, 40, -40, 7, -1, 52,
    68, -61, -15, -61, 83, 96, 106, 48, -4, 24,
    -87, -12, -43, -72, -98, 37, 55, -43, -103, -43,
    21, 65, 44, -57, 88, 61, 40, 55, -56, 0,
    1, 10, 71, 33, 22, 29, -45, 68, 6, -57,
    25, -35, -3, -1, 8, 52, 46, 58, -103, -30,
    -28, -3, -63, 81, -2, 79, 123, 49, -1, 94,
    56, 55, -10, 11, -67, 82, 75, -30, -11, -9,
    28, 11, -73, -9, -48, 61, -66, -90, 56, -80,
    34, -21, -97, -104, -3, -18, 41, 30, -21, 73,
    -27, 4, -40, -10, -82, -72, -72, 36, 30, 45,
    -112, -11, -100, -52, -1, 48, -27, 61, 40, 9,
    75, -23, 13, -33, 16, -6, -81, 69, 32, -47,
    -68, -74, 11, -97, -30, -86, 85, 45, -101, -80,
    -68, 70, 51, 39, 35, -87, -18, 84, -66, 3,
    45, -21, -57, -60, -46, -96, -21, 1, 59, -49,
    -45, -80, 97, -6, -86, 29, 54, 59, 69, 8,
    -5, 83, 14, 22, 47, -36, 58, 21, 45, 39,
    6, -10, -63, -12, 38, -75, 96, 80, -67, -36,
    12, -85, 50, 68, 57, 0, -36, -108, 43, 92,
    -5, -3, -41, 9, -32, -103, -4, -28, -51, -87,
    -38, 12, -68, 17, -15, 8, 22, -44, -100, -7,
    -77, -3, -96, -81, 67, -63, 12, 81, -80, -91,
    -96, 17, 70, -10, -59, -62, -48, -97, 38, 78,
    82, -92, 59, -3, -76, 43, 52, 6, 9, -46,
    17, -29, -5, 72, -64, 81, 45, -56, -79, -89,
    52, -8, 4, 74, -25, 17, 16, -12, -47, -59,
    -101, 83, 71, 75, 45, -50, -75, -106, -62, -59,
    -45, -75, -89, -29, -64, 12, -11, 76, 46, 43,
    -63, 15, -46, 59, 94, -84, 66, -64, -64, -55,
    13, -99, -59, 3, -36, 62, -7, 34, 31, -69,
    83, 75, 35, -70, 94, -49, 72, 111, -4, 59,
    -71, 70, 20, 10, -3, 58, -70, 26, 40, 41,
    -50, 13, 26, -34, -54, 12, -36, 108, 41, -13,
    14, -55, -1, 26, 40, 24, -8, -33, -85, 62,
    -50, -108, 43, 68, -36, -7, -63, 61, -92, 69,
    14, 75, -48, -34, -13, 38, 31, 25, 91, 28,
    -67, -42, 45, 73, -94, -87, -77, 56, -76, 36,
    -43, 68, 4, -39, 71, 91, -6, 79, -62, -50,
    -3, 87, 14, 62, 65, 62, 27, -94, -82, -90,
    24, 13, 22, -87, 27, -68, -78, 16, -16, -77,
    -1, 44, -78, -11, 83, 83, -49, -20, -44, -66,
    -60, 52, 63, -27, 10, -62, -32, 49, 39, -21,
    -98, -26, -62, 17, 85, 2, -25, -10, -14, 17,
    -31, -101, 75, -75, 76, -1, -2, 36, -45, -3,
    -49, -76, 51, 65, 41, 83, 53, 72, -41, 51,
    11, 3, 75, -71, -14, -27, 88, -16, 15, 42,
    66, -26, 7, 55, -24, 1, -69, 34, 78, 13,
    27, 94, 27, -24, 69, -69, 63, 67, -14, -109,
    39, 59, 2, 60, 30, 34, 98, -28, 18, -56,
    86, 21, 73, -65, 70, 67, 71, -52, -92, -42,
    78, 69, -37, -11, -23, -16, 19, 33, -40, -85,
    -10, 49, -78, 69, 23, 48, 65, 86, 96, -35,
    21, 57, -88, 36, -87, -58, -58, -73, -91, 54,
    -70, -48, -75, -28, -10, 37, -35, 37, 61, 91,
    -18, -49, 69, -35, -80, -52, -27, -1, 45, 49,
    -38, 88, 42, 35, -66, -11, 37, -40, 31, 44,
    -68, 81, 26, 1, 2, 1, -5, -27, 28, -25,
    71, -43, -66, 105, 58, -80, 74, -102, -77, -70,
    -7, 14, -42, -38, -64, 68, 45, -5, -8, 9,
    -31, -36, 100, -29, -46, -15, 34, -56, 20, 3,
    -53, 3, 23, -100, 55, 25, -47, 32, -46, 102,
    -39, 39, 22, -19, -32, 27, 42, -49, -13, 75,
    -90, 0, 19, -90, 16, -70, -96, 72, 45, 74,
    76, -69, -47, -17, 55, -19, -23, 75, -64, 58,
    17, -54, 43, 60, 9, -70, 38, 40, 19, 14,
    29, 39, -32, -69, -28, 40, -43, 41, -44, -51,
    58, -64, 47, 91, 27, 43, -40, -106, -34, 6,
    -48, -42, 27, 91, 96, 8, -100, -39, 33, 82,
    -55, 72, 50, 3, -62, 18, 51, -83, 91, 21,
    -71, 10, 36, -17, -62, -55, 22, -1, 35, 21,
    45, -36, 24, 15, 20, 80, -40, 96, -34, 104,
    -18, 74, -53, -13, 87, -22, -7, -30, 80, 72,
    -49, -32, 69, 50, 67, -69, -35, -65, -90, 5,
    -5, -44, -42, 2, -13, -87, 80, -35, 14, 71,
    -103, 3, -67, 84, -35, 49, -6, -35, 35, -53,
    -45, -29, 88, -103, 35, 90, -33, -54, -53, -6,
    76, -51, 89, -76, 66, -7, -34, -84, -71, -85,
    -89, -22, 80, -74, 67, 12, 47, -13, -57, 23,
    81, 30, 44, 114, 19, -46, 68, -35, 72, 16,
    46, 18, 87, 43, 67, -54, 25, 73, 54, -42,
    75, -62, 80, -28, -72, 83, 28, -15, 58, 74,
    1, -65, -38, -50, 24, -90, -53, -96, -5, 72,
    18, -1, 17, -74, -35, 75, -78, -90, -42, -107,
    -28, 63, -3, 5, -2, -57, -49, 19, 74, -73,
    48, -49, -76, 16, 60, 7, 35, -8, -41, 3,
    29, -18, 38, 30, -87, 77, -73, 50, -55, -9,
    35, 59, 80, -35, 17, 47, -87, -76, 34, 3,
    0, -27, 44, 81, 79, 60, 18, -82, 26, -52,
    59, -63, 28, 6, 74, 19, 34, -87, 31, -106,
    -88, -105, -50, -31, 35, -8, -25, 25, -103, 63,
    -65, -62, -14, -43, 11, -5, 49, -17, -34, 8,
    53, 72, -5, 77, -48, -30, -76, -51, -65, -69,
    16, -54, -84, -102, -63, 20, -31, 6, 52, 97,
    -54, 69, 36, 8, -20, 25, 4, 30, -57, -16,
    -16, -96, -65, 36, -79, 62, 77, -9, -13, 0,
    -55, 102, -54, -57, -29, -36, -67, -43, -26, 103,
    -40, 8, 12, 13, -51, 17, 46, -6, -26, 43,
    2, -23, 9, 61, 55, -61, 44, -30, 46, -40,
    -8, 44, 4, -52, -58, -30, -61, -71, -59, -1,
    -70, 63, 41, -87, 17, -7, -9, 40, -34, 92,
    44, -106, 16, 57, 14, 24, -7, 60, -53, 35,
    81, 46, -104, 42, -2, -39, 63, 57, 26, -66,
    -99, -3, 57, -35, 70, 1, 11, -38, 82, 58,
    -87, 75, -45, -82, 19, 68, 80, -47, 46, 60,
    54, -74, -81, -48, -4, -75, 73, -88, 60, -41,
    64, -80, -5, -55, -86, 38, 96, -30, -20, -36,
    -94, 73, 8, -13, 51, -8, -38, -96, -44, 69
};

/* shape=[64]  float_scale=0.000622 */
static const int32_t conv2_bias[64] = {
    53, 56, -82, -122, -23, -114, 24, 58, 63, -99,
    33, 78, -33, 119, 72, -88, 33, 107, -42, 46,
    15, 51, -17, -96, 24, 62, -41, 49, -2, -62,
    -85, -68, 82, 7, 55, 29, -68, 2, -4, 42,
    -116, -63, 78, -116, 26, 70, 52, 53, 43, -58,
    20, 62, -89, 97, -63, -1, -18, -6, 127, 2,
    104, -92, -21, -127
};

/* BatchNorm2 pre-folded */
/* shape=[64]  Q7 */
static const int32_t bn2_scale[64] = {
    221, 239, 256, 295, 334, 230, 239, 237, 257, 242,
    261, 235, 246, 302, 309, 298, 251, 235, 256, 222,
    263, 243, 274, 277, 297, 283, 238, 237, 225, 255,
    281, 223, 205, 252, 201, 269, 267, 264, 288, 257,
    279, 192, 231, 269, 241, 298, 301, 187, 248, 280,
    284, 267, 194, 314, 203, 226, 219, 235, 297, 211,
    250, 263, 184, 280
};

/* shape=[64] */
static const int32_t bn2_offset[64] = {
    0, 1, 0, 1, 0, 0, 0, 0, 0, -1,
    0, 0, 0, -1, 0, -1, 0, 0, 0, 0,
    0, 0, 0, -1, 0, 0, 0, 0, 0, -1,
    0, 1, 0, 0, 0, 0, 0, 0, 1, -1,
    0, 0, 0, 0, -1, 1, 0, 0, 0, 0,
    -1, -1, 1, 0, 0, 0, 1, 0, 1, 0,
    -1, 0, 0, 1
};

/* ------------------------------------------------------------------ */
/* FC1  (64 -> 1)                                                      */
/* ------------------------------------------------------------------ */
/* shape=[1, 64]  float_scale=0.001116 */
static const int32_t fc1_weight[64] = {
    -52, 106, -51, 81, -42, 109, 2, -10, 119, -7,
    95, 38, 102, -25, 6, -30, -49, -84, -4, 126,
    32, 59, -12, 1, 93, -81, 17, -75, -48, 98,
    74, -51, 67, 85, -54, 65, -76, -3, 36, 6,
    -36, -63, -15, -45, -58, 50, 50, -79, -30, -44,
    -32, 27, -55, 127, 50, 59, 50, -59, 14, -86,
    -48, 62, -80, 114
};

/* shape=[1]  float_scale=0.000555 */
static const int32_t fc1_bias[1] = {
    127
};

#endif /* WEIGHTS_CNN_1D_V2_H */
